5180 10
3687 -0.110984 -0.145114 0.043777 0.462216 -0.015953 -0.482018 -0.369924 -0.087639 -0.585287 0.225382
4967 0.131709 -0.419213 -0.281623 0.332532 -0.389967 -0.590599 -0.550359 -0.391092 -0.534301 0.198856
94 -0.381534 -0.375110 -0.217344 0.003831 0.478175 -0.956014 -0.475236 -0.683318 -0.449010 0.075116
4655 0.325696 0.194407 -0.148793 0.231407 0.421256 -0.352700 -0.398875 -0.543949 -1.183817 -0.459485
4126 -0.179753 0.444216 0.013547 0.312597 0.142851 -0.410108 -0.205794 -0.809460 -1.063051 -0.401590
1893 -0.331999 -0.241189 -0.319555 0.233472 0.124546 -0.019579 -0.827756 -0.444368 -0.964419 -0.000315
3881 -0.111419 -0.567011 -0.152130 -0.127947 0.067392 -0.550276 -0.707825 -0.455639 -0.658173 0.267637
372 -0.262559 -0.720887 0.159663 0.015775 0.103820 -0.278391 -1.113944 -0.053921 -0.804275 -0.143158
4979 -0.172511 -0.255877 -0.087647 -0.156599 0.315408 -0.561238 -0.855761 -0.411121 -0.623395 0.307175
1466 0.277962 0.066353 -0.062153 0.968683 -0.165879 -0.720209 -0.261271 -0.553643 -0.451217 -0.089237
2582 0.159024 0.029303 -0.452299 0.472997 -0.059100 -0.617261 -0.165034 -0.616189 -0.980130 -0.468647
2634 0.199254 -0.201275 -0.190841 0.277564 -0.415671 -0.381832 -0.482175 -0.447168 -0.994591 -0.376732
4651 -0.168834 -0.116278 -0.017111 -0.133634 0.149849 -0.626642 -0.798259 -0.457228 -0.586082 0.283833
2357 -0.482982 -0.338312 -0.156205 0.176217 0.263065 -0.039001 -0.982340 -0.359060 -0.920919 0.000177
4397 -0.577229 -0.546031 -0.511826 0.087296 0.530750 -0.703177 -0.624051 -0.458250 -0.524439 0.385214
1050 0.420540 0.247451 -0.114293 0.591735 0.413127 -0.291602 -0.026157 -0.567349 -1.356384 -0.545323
4263 0.088706 0.461318 -0.101453 0.469271 0.259430 -0.552834 -0.022592 -0.644464 -1.101360 -0.462329
1028 -0.263883 0.676471 0.091968 0.320739 -0.045125 -0.527490 -0.275864 -0.048514 -0.791919 0.435523
5040 -0.731797 0.192030 -0.163039 0.321753 -0.033127 0.219803 -0.415545 -0.494663 -1.101066 0.549761
2131 -0.146565 -0.029573 -0.468980 0.164170 -0.265252 -0.513309 -0.303209 -0.644118 -0.929161 -0.162970
3041 -0.497950 -0.109029 -0.220454 1.014050 -0.006764 -0.595567 -1.039767 -0.080764 -0.308990 -0.050369
4580 -0.498572 -0.186675 -0.275011 0.412121 -0.109125 -0.149554 -0.507309 -0.755451 -0.919914 -0.180070
2788 -0.019157 -0.334421 -0.328454 0.108228 -0.558330 -0.970205 -0.484295 -0.316668 -0.465630 0.224928
2958 0.045797 -0.011130 -0.570583 0.145445 -0.421257 -0.985974 -0.221856 -0.469570 -0.671662 -0.060136
1491 -0.935109 -0.280622 -0.410309 0.396345 0.130043 -0.553866 -0.496745 -0.438971 -0.667813 -0.099402
1777 -0.111442 -0.491603 0.618376 1.006054 -0.392480 -0.741432 0.795393 0.377840 -1.077135 0.856864
4667 0.024283 0.248776 0.016829 0.805480 -0.679100 -0.867801 -0.542287 -0.561990 -0.324928 -0.006923
553 -0.453367 -0.251700 -0.321820 -0.097655 0.295713 -0.906429 -0.467184 -0.171488 -0.685480 -0.076137
727 0.136398 0.105849 -0.441512 0.751230 -0.264337 -0.649880 -0.583296 -0.245695 -0.460858 0.244059
4522 -0.140892 -0.434293 -0.143722 -0.107944 -0.049135 -0.689965 -0.618538 -0.459352 -0.575974 0.251920
4394 0.147237 -0.132395 -0.418916 0.027186 -0.304533 -0.175135 -0.542384 -0.561010 -1.021563 0.206084
197 -0.649182 -0.099529 -0.239416 0.258266 0.042376 -0.736610 -0.526441 -0.153228 -0.801697 -0.541806
4024 -0.682670 0.483995 0.376548 0.931226 0.112772 -0.421867 0.302614 0.068351 -1.051832 0.558954
3928 0.240237 0.285742 -0.069667 0.998523 0.141239 -0.495455 -0.162043 -0.471443 -0.800097 -0.305373
330 -0.686466 0.053805 -0.200476 0.925979 0.262201 -0.396632 -1.010687 -0.294790 -0.452904 -0.064241
1183 -0.166569 0.215837 0.153041 0.089112 0.107456 -0.278908 -0.371041 -1.001194 -1.119732 -0.430517
4549 -0.055741 -0.181050 -0.578375 0.425997 0.009068 -0.621927 -0.160486 -0.584656 -0.839046 -0.265439
444 -0.186853 0.184031 -0.136529 0.188150 -0.268318 -0.655206 -0.159321 -0.897943 -1.012770 -0.566536
2869 -0.292447 -0.075739 0.072672 -0.333954 0.156835 -0.343684 -0.324728 -0.271694 -0.935225 0.604010
3671 -0.583521 0.503582 0.848167 0.960056 0.143602 -0.748072 0.256329 0.579230 -1.236692 0.785322
2953 -0.785099 -0.503649 -0.216697 0.188047 0.460856 -1.041871 -0.799235 -0.548879 -0.361482 -0.183108
344 -0.229793 0.075761 -0.123309 1.274730 -0.051505 -0.703486 -0.833274 -0.301664 -0.185983 0.018640
2155 -0.076791 0.097816 0.273189 -0.020586 -0.285375 -0.523928 -0.581167 -0.930564 -0.783374 -0.224241
18 -0.606950 0.048047 -0.393409 1.012910 0.355126 0.005256 -0.674735 -0.722198 -0.609648 0.448902
4959 -0.504416 -0.275365 -0.341129 0.245178 0.150198 0.248744 -0.604432 -0.870570 -1.071636 0.426079
282 0.305265 0.291352 -0.257852 1.195376 -0.067297 -0.659523 -0.545604 -0.332702 -0.448829 -0.057849
2459 -0.190578 0.020556 -0.484703 -0.092346 -0.406911 -0.702583 -0.518626 -0.663662 -0.718314 0.209438
1874 0.217638 -0.159026 -0.041113 -0.121722 -0.849741 -0.472550 -0.493153 -0.429750 -0.916607 0.189580
258 0.291562 0.573989 -0.331600 0.769450 0.532932 -0.514776 0.109379 -0.169409 -1.345776 -0.433007
4942 -0.543469 0.134812 -0.013275 0.010978 -0.578605 -0.692421 -0.056603 0.072647 -0.794488 0.719229
4506 -0.249269 0.035186 -0.236589 0.340299 0.356970 -0.269731 -0.849835 -0.116938 -1.098763 -0.637843
2858 -0.315077 -0.286973 -0.704691 0.317348 0.145244 -0.550381 -0.540281 -0.351438 -0.598390 0.386446
2404 0.197334 0.048109 -0.456601 0.547391 0.102102 -0.706030 0.033772 -0.742538 -1.020954 -0.605454
4782 -0.121999 -0.145869 0.087588 -0.001177 0.350995 -0.424858 -0.680108 -0.864096 -0.713703 -0.022771
3352 -0.226640 0.200875 -0.191587 0.323355 -0.190232 -0.756655 -0.213231 -0.791974 -0.882427 -0.572819
101 -0.112476 -0.188435 -0.092716 -0.420731 0.150509 -0.349135 -0.537128 -0.647311 -0.942233 0.404723
5152 -0.749749 -0.598305 -0.244632 0.174016 0.369618 -0.615177 -0.956858 -0.061349 -0.604089 -0.056172
3367 -0.188756 -0.091057 0.280214 0.119941 -0.111456 -0.351266 -0.635422 -0.976800 -0.912717 -0.502516
420 0.369645 -0.102092 -0.269839 0.490027 0.032573 -0.227183 -0.141102 -0.794995 -1.250331 -0.520591
512 -0.883029 -0.110824 -0.456573 0.506894 0.000851 -0.337835 -0.476625 -0.713065 -0.816078 -0.171099
3573 -0.505754 -0.048619 -0.348770 0.238141 0.245714 -0.910864 -0.286517 -0.034793 -0.570576 0.166309
3092 0.411472 0.114219 0.043463 0.536496 0.073610 -0.517432 -0.086106 -0.519757 -1.130160 -0.663717
2267 0.430079 -0.000761 -0.093301 -0.316556 -0.325029 -0.655717 -0.301773 -0.528571 -1.104298 -0.208580
1992 -0.101838 -0.753233 0.443180 0.089334 0.795818 -0.691891 -0.848134 -0.641913 -0.399283 0.124560
392 -0.512823 -0.276219 -0.299076 0.335382 0.085843 0.373341 -0.627978 -0.835144 -1.163060 0.237192
917 -0.100923 0.195340 -0.164195 1.080916 0.090718 -0.627773 -0.209231 -0.514947 -0.511501 -0.094601
1903 -0.325670 -0.448277 0.182045 -0.115565 0.870790 -0.899997 -0.840266 -0.642499 -0.359201 0.439493
4626 -0.593081 -0.258403 -0.321178 0.903915 -0.034894 -0.692128 -1.059700 -0.172009 -0.223809 0.068355
4860 0.319251 -0.055398 -0.283883 0.324428 -0.698439 -0.467131 -0.613443 -0.425069 -0.991482 -0.409785
2806 0.503828 0.001360 -0.169449 0.671643 0.189122 -0.432234 -0.100892 -0.690030 -1.155686 -0.625167
2631 -0.169156 -0.166674 0.163108 0.224479 0.029866 -0.405721 -0.678089 -0.880173 -0.807007 -0.487594
479 -0.266409 -0.239595 0.122670 0.012986 -0.250904 -0.245166 -0.529075 -0.963088 -0.944842 -0.213967
519 -0.385892 -0.051471 -0.255584 1.175614 -0.012438 -0.586918 -0.962883 -0.220960 -0.331832 -0.211979
5047 0.131052 -0.808939 0.372269 -0.183127 0.538605 -0.622646 -0.735355 -0.485457 -0.591116 0.212102
3351 0.411413 -0.061094 -0.219108 0.426415 0.030125 -0.492403 -0.219676 -0.849089 -1.032760 -0.548209
2233 0.671820 0.374482 -0.036832 0.321217 0.558461 -0.216981 -0.374204 -0.522605 -1.504284 -0.547612
3099 0.072546 0.049736 -0.212665 0.769563 0.118920 -0.891933 -0.691360 -0.438663 -0.151171 0.342265
3447 -0.099798 -0.745715 -0.477838 0.064770 -0.355090 -0.663481 -0.079209 -0.488188 -0.717827 0.357097
63 0.245095 0.105668 -0.130386 1.108677 -0.151764 -0.695114 -0.283868 -0.543212 -0.467348 -0.168393
719 0.086131 0.031327 -0.300003 0.718028 -0.118792 -0.659706 0.069110 -0.540104 -0.968915 -0.568888
1216 -0.152566 -0.107253 -0.505092 0.094801 -0.301583 -0.419333 -0.567834 -0.655341 -0.757335 0.305361
3501 0.272166 0.006970 -0.087854 1.111878 -0.149536 -0.678770 -0.169671 -0.602881 -0.485507 -0.141298
1259 -0.633462 0.519097 0.852858 0.929313 0.171982 -0.835378 0.197926 0.623893 -1.181540 0.874863
4554 -0.616103 -0.418707 -0.035340 0.067292 0.084104 -0.491937 -0.999851 -0.151283 -0.587686 0.150682
1925 0.385329 -0.958944 -0.011898 0.251812 0.009464 -0.435754 0.100202 -0.108098 -0.915919 0.221072
263 -0.007814 -0.131229 0.093140 0.024013 -0.709851 -0.468883 -0.608331 -0.648430 -0.988691 -0.426812
3875 -0.679538 -0.059391 0.146738 0.081427 -0.159151 -0.479809 -1.013840 -0.657138 -0.790670 -0.560090
2671 0.592080 -0.384404 0.138133 -0.095692 -0.550929 -0.514710 -0.837281 -0.520784 -0.713120 0.228769
279 0.325997 0.451449 0.085302 0.230584 0.088700 -0.282217 -0.460313 -0.579208 -1.285422 -0.533817
2819 0.243981 -0.247745 -0.104977 -0.047940 -0.431807 -0.911686 -0.415629 -0.395682 -0.581333 0.098702
3018 0.329738 0.105492 -0.454611 0.585945 0.220229 -0.728158 -0.011515 -0.612597 -1.038585 -0.595083
1651 -0.642759 -0.486781 -0.353950 -0.000982 -0.025488 -0.398056 -0.945608 -0.008393 -0.869931 -0.059582
862 0.395278 0.019437 -0.318806 0.572061 0.381014 -0.608086 0.080815 -0.539438 -1.159053 -0.592120
1301 0.103929 -0.966974 0.229381 -0.151853 0.760914 -0.503989 -0.812153 -0.613356 -0.601339 0.489219
2359 0.260546 0.156101 -0.080748 1.267522 -0.176202 -0.645751 -0.130208 -0.389229 -0.617482 -0.301226
104 0.276086 -1.214884 -0.231861 0.277150 -0.762432 -0.504487 0.325828 -0.306792 -1.068293 0.552170
177 -0.290081 -0.007248 -0.223477 0.255137 -0.595997 -0.729920 -0.236443 -0.735190 -0.853348 -0.450863
1063 -0.284321 0.284825 0.051387 0.088267 -0.267644 -0.723048 -0.049897 -0.698867 -0.960852 -0.399622
4359 -0.191709 0.041181 0.297788 -0.117791 0.057010 -0.356008 -0.479326 -0.450325 -0.672986 0.788164
1963 -0.048926 -0.062408 -0.208565 0.640780 0.020357 -0.835038 -0.740260 -0.486523 -0.090931 0.667353
4975 -0.830095 -0.033404 -0.398029 0.494406 -0.104541 -0.353038 -0.562388 -0.840552 -0.820322 -0.293569
4053 -0.094667 0.130453 -0.080439 0.482791 -0.363458 -0.320985 -0.450242 -0.759381 -1.021378 -0.551203
2200 0.192182 -0.346381 -0.235365 -0.092487 -0.479496 -0.229849 -0.648533 -0.309948 -1.115282 -0.015476
906 -0.047141 -0.416078 -0.091622 -0.199127 0.701106 -0.746541 -0.817698 -0.633204 -0.479851 0.584363
2652 0.533721 -0.017564 -0.132545 0.448897 -0.045039 -0.360695 -0.197634 -0.631889 -1.200309 -0.545814
3301 0.139971 0.353472 -0.253476 0.937660 -0.159837 -0.628376 -0.355047 -0.429171 -0.552384 0.014741
1082 0.077406 0.420128 -0.282590 0.645087 0.168336 -0.636011 -0.186236 -0.439146 -1.073586 -0.686515
40 -0.191432 -0.229467 0.049821 0.062922 -0.188141 -0.016429 -0.823217 -0.528593 -0.728358 0.776072
1712 0.111478 0.151989 -0.389226 0.562949 0.093428 -0.646394 -0.131505 -0.615739 -0.984130 -0.562824
2002 -0.711783 -0.015770 -0.123522 0.775907 -0.159271 -0.191572 -0.492372 -0.804460 -0.627858 0.052152
1280 -0.097460 0.091967 -0.258120 1.095887 0.212681 -0.781281 -0.931627 -0.320290 -0.160979 0.110816
1359 -0.162704 0.466034 0.090331 0.855748 -0.352550 -0.772331 -0.443546 -0.500595 -0.459932 -0.127651
2508 0.071791 -0.082632 -0.327071 0.711110 -0.108615 -0.798045 0.080660 -0.597092 -0.932920 -0.719229
3765 -0.546196 -0.039112 -0.338168 0.231724 0.179626 0.135536 -0.770351 -0.520655 -0.944505 0.522719
1226 0.287891 -0.050275 -0.186761 0.558743 -0.001330 -0.580341 0.137469 -0.647893 -1.133179 -0.641778
74 0.087870 -1.024265 -0.285124 0.257247 -0.724725 -0.398861 0.056628 -0.381491 -0.913163 0.532162
4804 -0.468257 -0.447255 0.360098 0.534724 0.644799 -1.057002 -0.530469 -0.639212 -0.016828 0.378799
4585 0.364135 0.426136 -0.169340 0.712483 0.521108 -0.588327 -0.167839 -0.339549 -1.253488 -0.783066
4908 -0.421137 0.454103 -0.313445 0.889273 0.724787 0.161825 -0.249677 -0.786906 -1.047273 0.399364
375 0.745102 0.137219 -0.129391 0.732641 0.470440 -0.383358 -0.328430 -0.460562 -1.303755 -0.755627
1032 -0.671884 -0.189615 -0.368399 0.339984 -0.204790 -0.066005 -0.489904 -0.657228 -0.843078 0.410398
4034 0.492004 -0.347859 0.045440 0.375935 0.003412 -0.208111 -0.426068 -0.663954 -1.175689 -0.617495
5079 0.420863 0.256279 -0.231601 0.641357 0.299981 -0.291341 -0.066237 -0.608992 -1.438239 -0.673677
951 -0.540289 -0.385878 -0.731640 0.165291 -0.096632 -0.808921 -0.338945 -0.228675 -0.710342 0.005193
213 0.285827 -0.094839 0.352429 0.093079 0.595045 0.572184 -0.637330 -0.617266 -1.567746 0.022707
4265 -0.379695 -0.229632 -0.433860 0.006960 -0.129953 -1.040642 -0.422245 -0.373286 -0.599252 -0.140498
1602 -0.567406 -0.260244 -0.421421 0.201590 -0.114311 -0.122972 -0.531530 -0.667626 -0.893792 0.273537
1686 -0.282796 -0.374704 -0.237224 0.016207 0.206632 -0.022655 -0.739571 -0.472662 -0.931903 0.411336
2781 0.463122 -0.541764 0.110980 0.099828 0.135216 -0.212879 -1.023871 -0.069720 -0.965293 -0.224147
791 -0.776021 -0.465279 -0.579982 0.267888 0.081206 -0.627087 -0.958419 0.068682 -0.700455 -0.152561
3335 0.140328 -0.465943 0.304262 -0.327365 0.534399 -0.425383 -1.071857 -0.342672 -0.689433 0.385178
67 -0.474606 -0.314528 -0.268585 0.266698 0.015493 0.112050 -0.554191 -0.783268 -0.979441 0.287775
905 -0.647726 -0.110119 -0.522786 0.433831 0.093983 0.165648 -0.610759 -0.763597 -0.949709 0.485436
139 0.362843 -0.111417 -0.305317 -0.030708 -0.252383 -0.386071 -0.611756 -0.592997 -0.999289 -0.099753
5172 -0.215975 -0.124815 0.072636 -0.081746 -0.396919 -0.385785 -0.533952 -0.936681 -1.011921 -0.384486
2194 -0.264135 -0.079103 -0.033782 -0.075903 -0.620154 -0.826263 -0.269546 -0.842505 -0.853500 -0.411387
1762 -0.567407 -0.207383 -0.219734 0.233801 0.161882 -0.365132 -1.263654 0.177301 -0.832848 -0.343632
3460 0.468307 -0.388379 -0.005301 -0.195292 -0.386163 -0.283745 -0.961196 -0.318621 -0.996650 0.031493
2446 0.206871 0.316016 -0.356800 0.571437 0.285664 -0.608574 -0.172900 -0.479240 -1.192724 -0.714408
2348 0.119188 0.055652 -0.214116 1.071337 0.088180 -0.517254 -0.096038 -0.630486 -0.806835 -0.449819
4845 0.684650 0.249503 -0.287659 0.816580 0.519785 -0.464637 -0.383122 -0.344741 -1.182989 -0.646592
3252 0.048604 -0.107723 -0.592818 0.568711 0.161314 -0.824764 -0.072089 -0.686699 -0.814148 -0.496401
4729 -0.385128 -0.261531 -0.728882 -0.006936 0.351664 -0.891746 -0.400539 -0.381139 -0.738560 -0.095468
3005 -0.512517 -0.007156 0.245268 -0.042236 -0.249366 -0.508077 -0.773839 -0.670282 -0.864654 -0.485115
3213 -0.349679 0.440566 0.602150 1.043992 0.388677 -0.826439 0.611503 0.476022 -1.234574 0.418430
2490 -0.429828 -0.064907 0.122583 0.607774 -0.158607 -0.866499 -0.551239 -0.888206 -0.233509 -0.074379
3895 -0.221326 -0.080404 -0.375400 0.535719 -0.230782 -0.642520 -0.815982 -0.147614 -0.443483 0.144053
4765 -0.013827 -0.040535 -0.331620 0.237910 -0.092852 -0.797396 -0.084190 -0.645968 -0.836374 -0.367298
2640 -0.541002 0.553403 0.792808 0.935849 0.255816 -0.968028 0.203012 0.644211 -1.104960 0.943956
1658 -0.332764 0.007101 -0.516688 -0.131190 -0.296206 -0.900173 -0.367690 -0.445312 -0.777555 -0.052334
3613 -0.040087 -0.141730 -0.207042 -0.168360 -0.147105 -0.233759 -0.714487 -0.293553 -1.041028 0.100066
3321 -0.005386 0.192720 -0.430192 0.908758 -0.121883 -0.374854 -0.523831 -0.517172 -0.583829 0.152747
787 -0.044284 0.121678 -0.161305 0.308956 -0.435457 -0.797685 -0.040693 -0.720397 -0.934183 -0.556122
2933 0.129314 -0.102177 -0.109495 0.710293 0.422959 -0.850512 -0.845811 -0.212862 -0.123008 0.459889
2919 0.030012 0.215431 0.063905 0.828897 -0.621643 -0.810510 -0.361237 -0.543216 -0.423171 -0.088680
280 -0.150673 0.502500 0.108324 0.740116 -0.549012 -0.768889 -0.409162 -0.526334 -0.429052 0.102625
238 -0.178554 0.088321 -0.156468 1.159120 -0.057859 -0.798949 -1.098961 -0.352128 -0.020031 0.333559
1153 -0.436004 -0.129357 -0.229626 0.094415 -0.085255 0.004111 -0.885177 -0.594653 -0.817049 0.626650
2541 0.464224 0.407339 -0.167393 0.377912 0.268492 -0.327240 -0.220981 -0.309200 -1.394383 -0.477246
4290 0.279071 0.222516 -0.214048 0.681615 0.304148 -0.597519 0.148224 -0.736141 -1.146972 -0.600007
103 -0.089821 -0.483013 0.124777 0.143830 -0.041440 -0.292568 -1.342818 0.135967 -0.866512 -0.397448
4537 -0.401104 -0.053892 -0.588524 0.067670 0.177332 -0.730084 -0.466442 -0.282892 -0.933952 -0.394681
3851 -0.317024 -0.627272 0.181556 -0.111393 0.032853 -0.094060 -1.072432 -0.188373 -1.008084 -0.129376
1369 -0.221852 -0.481318 -0.621844 0.025124 -0.553335 -0.714009 -0.257768 -0.572883 -0.696988 0.367343
1003 -0.155528 0.390838 -0.042717 0.364714 -0.128381 -0.596861 -0.064940 -0.813616 -1.042196 -0.554488
4694 -0.526607 -0.177325 -0.006958 0.051036 0.193412 -0.308335 -1.137745 -0.099032 -0.952774 -0.466624
667 0.438324 0.536852 0.063381 0.513897 0.316097 -0.415648 -0.323954 -0.436251 -1.279455 -0.628571
1636 0.143945 0.153695 -0.416944 0.203492 -0.023682 -0.022337 -0.667953 -0.790721 -1.099274 0.024194
1574 0.271444 0.455540 -0.410711 0.695148 0.266506 -0.721903 -0.154521 -0.455006 -1.109375 -0.688397
549 -0.305709 -0.446916 0.226719 0.459065 0.846638 -1.087126 -0.662495 -0.587143 -0.018539 0.516191
5106 -0.261339 0.097967 -0.336889 1.039963 0.180716 -0.280727 -0.227507 -0.941529 -0.704420 -0.088589
4715 -0.584945 -0.325293 -0.407286 0.138463 -0.220802 -1.035213 -0.200533 -0.357058 -0.705595 -0.413459
5007 0.186641 0.113901 -0.365179 0.472712 0.020708 -0.744902 0.113722 -0.655879 -1.010455 -0.535909
1217 0.266545 0.378151 -0.016577 1.191530 -0.184543 -0.771178 -0.107834 -0.575514 -0.590474 -0.252537
1326 0.202259 0.176921 -0.118075 0.436494 0.371808 -0.248198 -0.368708 -0.299224 -1.332152 -0.680536
3122 -0.541838 -0.262020 -0.448656 0.044785 0.177187 -0.776637 -0.393412 -0.594227 -0.680755 -0.083816
1557 -0.537193 -0.252311 -0.408136 0.115776 -0.203373 -0.796496 -1.049331 0.025165 -0.705602 -0.405737
2561 -0.880304 -0.423925 -0.530324 0.170408 -0.081289 -0.841726 -1.081366 0.149623 -0.691477 -0.397897
3953 -0.819933 -0.227424 -0.229739 0.638334 -0.044671 -0.391916 -1.132077 0.333868 -0.640980 -0.189261
4183 -0.172588 -0.135631 0.032128 0.786919 0.417051 -0.692459 -0.417081 -0.619625 -0.430758 -0.281197
1173 0.283726 -0.548728 0.261888 -0.295235 -0.882239 -0.490191 -0.764848 -0.456083 -0.922829 0.078783
4437 0.441214 -0.375637 0.013227 0.536359 0.077436 -0.465894 -0.394783 -0.686785 -0.879000 -0.573492
4428 -0.158563 0.088715 0.171451 0.856216 -0.504589 -0.796231 -0.192455 -0.776787 -0.275778 0.239176
4476 -0.421647 -0.161127 -0.343200 0.338684 0.481773 0.285791 -0.637097 -0.803239 -1.089854 0.324696
1816 0.050633 0.051123 -0.407418 0.689117 -0.141461 -0.731459 0.062272 -0.857870 -0.908469 -0.570887
4152 -0.112015 -0.251620 0.026336 0.538892 0.038058 -0.172318 -0.699912 -0.719815 -0.970184 -0.662707
3486 -0.479018 0.372946 0.424325 -0.172553 -0.274264 -0.179632 -0.633902 -1.067214 -1.003633 0.011176
2049 -0.600543 -0.191453 -0.185964 0.882687 0.129091 -0.487796 -1.038519 0.008061 -0.431943 -0.133943
5049 -0.168910 -0.238352 -0.398889 0.719794 0.090033 -0.804898 -0.206771 -0.632571 -0.816819 -0.844318
3091 0.313396 0.583420 -0.060703 0.814074 0.386392 -0.577708 -0.232880 -0.368617 -1.028610 -0.499328
182 0.370460 -0.161385 -0.374370 0.553597 -0.276684 -0.330074 -0.262131 -0.763638 -1.137947 -0.557464
2127 -0.185181 -0.050274 0.293525 0.118398 -0.227774 -0.419722 -0.366887 -1.020284 -1.003507 -0.571733
2666 -0.526575 0.102806 -0.262571 0.183997 -0.481463 -0.804907 -0.374756 -0.757480 -0.827156 -0.540646
4905 -0.140558 0.098071 0.003092 -0.015437 -0.695717 -0.628789 -0.313592 -0.944056 -0.868237 -0.192680
3411 -0.352092 0.146618 -0.115459 -0.018414 -0.518850 -0.964596 -0.272103 -0.671004 -0.827502 -0.474886
3735 -0.582821 -0.327954 -0.216632 0.487437 0.022004 0.413230 -0.576930 -0.743558 -1.046705 0.540073
4380 -0.099867 -0.057856 0.156880 0.090258 -0.972715 -0.576579 -0.439560 -0.774464 -0.788832 -0.096810
2019 0.033431 0.013161 -0.019102 -0.063545 0.135092 -0.309907 -0.562839 -0.655011 -0.903069 0.059076
4094 0.394785 -0.192043 -0.227435 0.677282 0.048102 -0.318698 -0.230827 -0.716954 -1.085488 -0.577958
1151 0.538125 -0.251882 -0.020088 0.310188 -0.344915 -0.416211 -0.550439 -0.489923 -1.036071 -0.574977
924 0.134957 -0.136420 -0.382536 0.431211 0.027961 -0.532840 -0.094316 -0.926749 -0.900368 -0.310963
3415 0.197598 0.065768 -0.075910 1.097222 -0.101170 -0.650145 -0.027520 -0.435262 -0.654922 -0.296467
1349 -0.137481 0.488465 -0.010614 0.403606 -0.089352 -0.529229 -0.153101 -0.818541 -1.014438 -0.464056
3788 -0.773200 0.339369 0.828107 0.894669 0.203235 -0.893394 0.214092 0.669094 -1.111624 1.003673
1010 -0.129442 -0.123873 -0.082417 0.654165 0.376361 -0.984913 -0.891059 -0.361254 -0.112930 0.065391
2070 0.513183 0.551990 0.160187 -0.070667 -0.406998 -0.618921 -0.867925 -0.416189 -0.631701 0.507436
3756 0.013253 0.007542 -0.134208 -0.141068 0.180654 -0.421472 -0.799393 -0.635180 -0.750658 0.268261
1530 -0.008323 0.333411 -0.078821 1.127550 0.281827 -0.614728 -0.340529 -0.404535 -0.620135 -0.328552
1673 -0.593757 0.386385 0.599039 0.772215 0.239787 -0.685779 0.356647 0.467617 -1.172740 1.005689
4731 -0.775456 -0.097003 -0.369209 0.579224 0.031546 -0.204476 -0.406996 -0.795082 -0.963922 -0.358846
3164 0.403871 -0.479118 -0.340785 -0.114085 -0.117011 -0.220687 -0.681176 -0.494314 -0.965865 0.320859
3413 0.125106 0.584600 -0.109920 1.116553 -0.312185 -0.806402 -0.639139 -0.546539 -0.386542 -0.080915
3050 -0.262876 -0.727725 -0.315996 -0.102655 0.683195 -1.099103 -0.562136 -0.462518 -0.398180 0.356146
2261 -0.443338 -0.359891 -0.434380 -0.239924 0.535270 -1.211245 -0.578785 -0.259387 -0.501256 0.165110
4264 0.240374 -0.723653 0.091879 -0.031540 0.465710 -0.519966 -1.122512 -0.158393 -0.647904 0.024517
2157 0.211783 0.341153 -0.142417 1.154245 -0.273956 -0.791231 -0.480991 -0.351764 -0.440232 -0.181877
4039 0.151013 -0.035037 0.021805 0.093671 -0.759802 -0.410641 -0.522792 -0.805531 -1.069305 -0.436377
5073 -0.480797 -0.134038 -0.447119 0.050114 -0.236604 -0.876309 -0.414286 -0.339395 -0.683322 -0.095015
1457 -0.013369 0.208166 0.234441 0.466951 -0.602595 -0.789268 -0.405400 -0.900131 -0.510551 -0.176459
2377 0.200026 0.150832 -0.325291 0.663915 -0.474365 -0.640244 -0.568933 -0.278780 -0.375982 0.651055
4173 -0.652523 -0.055211 -0.344581 0.754112 -0.035834 -0.592367 -0.586612 -0.484583 -0.806073 -0.833569
3366 0.166863 -0.070943 -0.139734 0.682972 -0.074247 -0.765337 -0.286881 -0.476368 -0.425206 0.057483
402 -0.253964 -0.039043 -0.122279 0.751510 0.456831 -0.379873 -0.541916 -0.777833 -0.568311 -0.111889
883 0.150663 0.616115 -0.165557 1.116043 0.336528 -0.583701 -0.338459 -0.477058 -0.722196 -0.236771
4146 0.027153 -0.402259 -0.100897 0.058547 -0.503583 -0.208693 -0.406247 -0.775808 -0.800265 0.502075
971 0.088217 0.227146 -0.074212 1.106011 -0.140815 -0.887546 -0.656192 -0.435236 -0.250046 -0.170205
3017 0.500251 -0.370266 -0.229853 0.405689 -0.199287 -0.337357 -0.438192 -0.768061 -1.139987 -0.643905
1261 -0.621650 -0.345733 -0.890899 -0.006159 -0.165071 -1.068195 -0.449678 -0.112484 -0.717469 -0.025526
1312 0.294303 -0.315422 -0.184174 0.412882 -0.784336 -0.654552 -0.404819 -0.284667 -0.448977 0.676874
2733 -0.930625 -0.299577 -0.854081 0.170980 0.016816 -0.275045 -0.300490 -0.379990 -1.032948 0.310562
1617 -0.376640 0.143556 -0.045112 0.001014 -0.496376 -0.869194 -0.320099 -0.936869 -0.841294 -0.524425
1195 0.326054 0.503031 -0.377588 0.548531 0.569673 -0.619549 0.064544 -0.238541 -1.289494 -0.479272
1961 0.312648 0.129849 -0.263743 0.584667 0.347629 -0.578463 0.065481 -0.657721 -1.216482 -0.685540
2149 -0.127139 -0.404641 -0.660676 -0.078765 -0.539687 -0.973080 -0.277543 -0.138795 -0.721821 0.287610
1024 -0.604965 0.078151 -0.367276 1.136127 0.099979 -0.665858 -1.034797 -0.041721 -0.329788 -0.144459
52 -0.003003 0.554682 -0.176661 0.387532 0.219323 -0.487060 -0.418583 -0.465826 -1.078678 -0.491026
505 0.435429 -0.725779 0.182351 0.031722 -0.684797 -0.329064 -0.910704 -0.066682 -1.007730 -0.263018
706 -0.657086 0.105191 -0.433406 1.000286 0.155144 -0.024636 -0.483144 -0.823688 -0.678136 0.460358
2740 -0.685673 -0.285610 -0.078270 0.462802 -0.117693 0.401552 -0.277234 -0.644028 -1.127507 0.610120
3225 -0.649099 -0.361451 -0.334006 0.167979 0.034947 -0.000240 -1.247430 0.175834 -0.973410 0.134569
4365 0.439645 0.859735 -0.223795 0.925664 0.357922 -0.559744 -0.313651 -0.380233 -1.110277 -0.437823
2462 -0.438385 0.144278 -0.006123 -0.000507 -0.544741 -0.749027 -0.181870 -0.887451 -0.843681 -0.242962
831 0.381893 0.184456 -0.396218 0.589066 -0.053414 -0.798935 -0.201652 -0.453700 -0.961050 -0.620142
563 0.594629 -0.201589 -0.122194 0.725349 0.074871 -0.553709 -0.169334 -0.805626 -1.013115 -0.733452
3177 -0.375785 -0.549801 0.251199 0.149303 -0.036465 0.451614 -0.788979 -0.647011 -1.307089 -0.078182
1322 -0.511172 -0.492966 -0.652870 -0.144514 0.201386 -1.251383 -0.439980 -0.274041 -0.544691 0.070512
4716 -0.671347 -0.257852 -0.337987 0.471269 -0.030178 0.359163 -0.648601 -0.938228 -1.056635 0.426348
4591 0.108796 0.181951 -0.173781 1.336468 -0.262410 -0.717313 -0.345050 -0.571169 -0.394879 -0.160936
320 -0.134121 0.497324 -0.023696 0.992200 -0.173207 -0.640040 -0.500977 -0.605719 -0.516497 -0.203405
3631 -0.114465 -0.395655 -0.101016 0.626981 0.699103 -0.938735 -0.794378 -0.382453 -0.018515 0.776453
3607 -0.004469 0.280858 -0.074375 0.889607 -0.594244 -0.849066 -0.409698 -0.895185 -0.320938 0.060293
704 -0.035512 0.008675 0.178300 -0.021892 -0.556295 -0.371504 -0.653188 -0.789449 -1.079914 -0.520863
783 -0.541260 -0.219079 -0.313314 0.243637 0.080224 0.163548 -0.819253 -0.535358 -0.936844 0.490640
1902 -0.072694 -0.103500 -0.130731 -0.196429 -0.264809 -0.252762 -0.627863 -0.490510 -0.985462 0.211773
4705 0.489912 0.040316 0.040844 -0.249567 -0.441992 -0.529376 -0.763268 -0.655359 -0.802595 0.277848
4171 0.298269 0.491662 -0.138102 0.997573 -0.129370 -0.902826 -0.314286 -0.572333 -0.414853 -0.025374
4984 -0.877920 -0.016629 0.059778 0.180507 -0.259137 -0.609547 -0.768665 -0.617674 -0.762416 -0.541556
3014 0.546337 0.199238 -0.177527 0.303673 0.134253 -0.310451 -0.408773 -0.375022 -1.494917 -0.782787
4965 0.462950 0.241382 -0.421168 0.710432 0.400086 -0.815384 -0.043846 -0.490065 -1.017376 -0.654078
2283 -0.379738 -0.074261 -0.257868 0.868215 0.273515 -0.330582 -0.561415 -0.733486 -0.548800 -0.035401
4641 -0.303649 0.005421 -0.188959 0.461188 -0.212013 -0.202400 -0.439606 -0.909090 -1.108733 -0.587826
1865 -0.498208 -0.064631 -0.372007 0.456968 -0.001234 -0.601456 -0.380570 -0.478833 -0.852736 -0.534907
2048 -0.664179 0.447125 0.753776 1.065756 0.049867 -0.821755 0.281556 0.659179 -1.187080 0.717333
480 0.676067 0.084261 -0.248802 0.746663 0.443362 -0.386367 -0.162155 -0.433148 -1.275240 -0.663837
3700 -0.126445 -0.383246 0.229312 -0.043334 -0.157413 -0.127128 -0.973135 -0.364748 -1.020801 -0.276204
2648 0.216645 0.639989 -0.126092 0.448626 -0.513962 -0.864355 -0.610907 -0.587015 -0.371453 0.491832
1581 0.323703 -1.183406 -0.033270 0.066604 -0.147832 -0.438007 -0.333611 -0.041955 -0.879728 0.212373
4 0.306101 0.443541 -0.341311 0.584186 0.334334 -0.726921 -0.071520 -0.466337 -1.160495 -0.663883
1461 -0.520226 -0.452659 -0.243657 0.152937 0.054458 -0.157290 -1.152015 0.058683 -0.958657 -0.204832
64 -0.508725 0.659958 0.887728 0.923673 -0.094604 -0.739344 0.317992 0.247245 -1.084156 0.463128
3142 -0.337383 0.259842 -0.005844 1.070833 -0.112440 -0.721684 -0.710972 -0.775532 -0.299429 -0.242141
966 0.355731 -0.358131 -0.302858 0.583603 -0.847261 -0.770161 -0.331897 -0.390588 -0.484643 0.237571
928 0.113542 0.490908 -0.147055 0.977633 0.154202 -0.550834 -0.300461 -0.338829 -0.781553 -0.294437
4819 0.372807 0.387634 0.197409 0.285342 0.441568 -0.323770 -0.513101 -0.411687 -1.362557 -0.735182
3308 -0.145426 -0.386231 -0.043521 -0.147876 0.483783 -0.540241 -0.771970 -0.786867 -0.575547 0.444935
1828 -0.769921 -0.108142 -0.576201 0.022100 0.195671 -0.972808 -0.800593 -0.013239 -0.570118 0.087936
1037 -0.562182 0.464779 0.649971 0.761932 -0.020027 -0.657967 0.113174 0.623623 -1.132135 0.906018
1295 -0.560871 0.309875 0.553625 0.815727 0.192957 -0.618432 0.241778 0.442748 -1.032078 0.914573
976 0.495447 0.115838 -0.437422 0.808250 0.267627 -0.803126 -0.120965 -0.364711 -0.994957 -0.718994
2145 0.459762 0.219139 -0.292608 -0.129522 -0.243533 -0.743625 -0.265096 -0.531519 -1.223773 -0.515504
2750 0.534100 0.573928 -0.034260 0.412012 0.424850 -0.407605 -0.211239 -0.456070 -1.509260 -0.684905
461 0.522749 0.493952 0.118153 0.445268 0.851307 -0.068232 -0.144999 -0.796689 -1.536586 -0.350087
5107 -0.343268 -0.360664 -0.088523 -0.017060 0.043448 -0.379571 -1.063597 -0.175766 -0.733941 0.101598
1370 -0.338038 -0.353660 -0.263321 0.406256 -0.168416 -0.767613 -0.649092 -0.331567 -0.254409 0.556477
1711 -0.211245 0.024126 0.136014 0.129169 -0.398232 -0.366084 -0.403206 -1.106893 -1.032509 -0.465165
1956 -0.556562 0.172872 -0.097267 0.650647 -0.027754 -0.378948 -0.418920 -0.812885 -0.653458 -0.058160
5090 0.420133 -0.529454 0.152788 0.172119 0.417196 -0.108145 -0.963211 -0.420282 -1.064229 -0.461538
2815 0.180209 -0.658802 -0.011570 0.298997 -0.583521 -0.757707 -0.282171 -0.134352 -0.488602 0.386227
274 0.380667 0.467269 -0.214962 1.071127 0.188561 -0.817321 -0.505722 -0.525327 -0.594209 -0.436961
1364 -0.437570 0.596373 0.737693 0.890343 -0.060473 -0.908985 0.501195 0.499294 -1.239947 0.896106
1845 0.170085 -0.240702 0.146570 -0.006845 -0.127442 -0.271017 -1.018058 -0.356565 -0.938944 -0.299759
2214 -0.407935 0.162987 -0.186541 -0.001681 -0.469179 -0.932048 -0.296548 -0.666562 -0.868616 -0.529655
773 0.375560 -0.265079 -0.009576 -0.067501 -0.251287 -0.397436 -0.850330 -0.462273 -0.884114 -0.109595
1484 -0.328558 0.501759 0.238185 0.414799 -0.062684 -0.576852 -0.082728 -0.945405 -1.022406 -0.586785
3808 -0.569062 -0.527718 -0.154676 -0.081181 0.599338 -0.854149 -0.672434 -0.527375 -0.532469 0.027777
1049 -0.210679 0.122114 0.141909 0.201219 -0.203380 -0.427998 -0.461388 -1.019022 -0.982533 -0.567929
4361 0.307779 0.714485 0.019205 0.922787 0.083212 -0.630592 -0.249553 -0.403413 -0.775950 -0.199742
1985 -0.256932 -0.038702 -0.725314 -0.144903 -0.132061 -1.062448 -0.448951 -0.104437 -0.722104 0.109364
4018 -0.351499 -0.342746 0.246136 0.138383 0.454557 -0.802448 -0.439855 -1.038443 -0.502850 -0.272203
2004 0.218479 0.602043 -0.141907 0.830391 -0.184891 -0.933715 -0.472003 -0.584745 -0.250147 0.429895
1075 -0.506465 -0.229751 -0.783428 -0.166825 -0.184219 -0.849579 -0.442113 -0.379009 -0.888285 -0.098827
4916 0.462838 0.606955 -0.296496 1.155700 0.609747 -0.646581 0.014342 -0.363328 -1.087672 -0.466552
3621 -0.105021 0.393588 0.139738 0.210756 -0.177952 -0.437580 -0.278150 -1.032362 -1.134358 -0.621187
2853 -0.783947 -0.174761 0.449458 0.720980 -0.052919 -0.613512 -0.256388 0.667002 -0.690407 0.475899
1576 -0.083003 -0.045726 0.436023 0.019279 -0.569451 -0.325089 -0.510321 -1.007095 -1.012683 -0.439905
882 -0.151916 0.388384 -0.076929 0.548225 -0.179237 -0.519272 -0.099911 -0.834964 -0.840659 -0.206832
558 0.401527 0.022319 -0.199118 0.504570 -0.391653 -0.392157 -0.490273 -0.618239 -1.033015 -0.553454
2751 0.507161 0.315717 -0.222843 1.174080 0.316498 -0.593610 0.035853 -0.018393 -0.973332 -0.323817
4383 0.474528 -0.277603 -0.061958 0.001245 0.022341 -0.096005 -0.922500 -0.326068 -0.927769 0.258702
229 -0.118560 -0.206316 -0.162477 -0.346203 0.261872 -0.485452 -0.862094 -0.558181 -0.704596 0.597889
1128 0.227724 0.335085 -0.170520 0.206193 0.079505 -0.208873 -0.424749 -0.344198 -1.432879 -0.567054
681 -0.434883 -0.331434 -0.874206 -0.166888 0.252804 -1.322407 -0.597903 -0.144737 -0.529048 0.199975
1780 -0.027078 -0.830194 0.173841 0.022293 0.168321 -0.136286 -1.345595 0.008737 -0.842738 0.030363
3904 0.106725 0.063048 -0.235208 0.351565 0.289334 -0.202291 -0.315699 -0.556944 -1.311977 -0.584327
4877 -0.379204 0.521954 -0.053043 0.296174 -0.172200 -0.535757 0.007746 -1.015513 -1.134645 -0.536001
978 -0.160524 0.189501 0.246227 0.560530 -0.677970 -0.821258 -0.296845 -1.062390 -0.407569 -0.073825
5095 0.429363 0.115949 -0.148527 0.734276 0.107438 -0.444103 0.069201 -0.652741 -1.215148 -0.605646
2547 0.229095 0.447048 -0.248858 0.669842 0.366217 -0.610366 0.012288 -0.223127 -1.300995 -0.673109
4662 0.358923 0.027829 -0.307133 -0.010539 0.439946 -0.457179 -0.642765 -0.629592 -0.890161 -0.047447
4458 0.493837 0.118639 -0.183513 0.877927 0.387736 -0.349519 -0.031823 -0.634486 -1.271688 -0.663398
4381 -0.639913 -0.140151 -0.671116 0.001899 -0.385770 -1.168422 -0.605945 0.160650 -0.677455 -0.164568
5171 -0.512509 -0.278969 -0.391864 0.429220 0.107606 0.419483 -0.473508 -0.909040 -1.198252 0.339141
2159 0.181236 -0.213789 -0.192437 -0.211921 -0.320688 -0.684595 -0.671997 -0.587502 -0.621357 0.396337
3280 0.164996 -0.241239 0.270421 0.201286 -0.023572 -0.146531 -1.052546 -0.320588 -0.798387 -0.081636
2763 -0.356001 0.419367 0.448585 1.060446 0.187430 -0.702518 0.222745 0.321368 -0.878478 0.349449
2085 -0.180525 -0.365364 -0.700648 -0.041910 -0.346176 -0.750463 -0.148451 -0.617497 -0.881324 0.025938
4562 -0.249840 -0.262764 -0.866723 -0.068318 -0.426342 -0.865661 -0.350732 -0.322867 -0.870008 0.019320
4312 0.471448 -0.530969 -0.484804 -0.052343 -0.641176 -0.236001 -0.854391 -0.169084 -1.054281 0.245019
3926 -0.331166 0.134977 -0.183295 0.498435 -0.688010 -0.621406 -0.683878 -0.760493 -0.533676 -0.031553
1164 -0.157296 -0.395242 -0.324399 0.222862 -0.521726 -0.386988 -0.304917 -0.755901 -0.786951 0.173137
3505 -0.247004 0.242843 -0.162457 0.209723 -0.465049 -0.749866 -0.258075 -0.976225 -0.957176 -0.628821
2803 -0.188925 -0.873041 0.107978 0.108170 0.139979 -0.146203 -1.235923 0.016212 -0.889509 -0.168594
3763 -1.042791 0.305949 0.027364 0.655742 -0.076236 -0.094892 -0.038048 -0.082770 -1.035893 0.653837
4065 0.032210 0.599687 -0.140771 0.621305 0.345755 -0.487533 -0.126515 -0.497666 -1.267441 -0.663826
2294 -0.197755 -0.158105 -0.338731 -0.042081 -0.123514 0.152629 -0.655931 -0.841048 -1.117588 0.436880
4685 0.080743 0.052942 0.214073 0.697801 -0.108538 -0.783931 -0.633249 -0.603313 -0.100425 0.553809
2009 -0.359948 0.213603 -0.029952 0.130686 -0.678862 -0.688829 -0.278120 -0.857168 -0.828134 -0.269028
3581 -0.105425 -0.210964 -0.800117 0.226295 -0.445969 -0.188506 -0.486559 -0.423903 -0.907477 0.619774
2536 -0.962363 -0.371246 -0.577873 0.256316 0.253773 -0.855941 -0.790096 0.059461 -0.674578 -0.294981
377 -0.295054 0.425319 -0.543317 0.050792 0.026163 -1.047909 -0.086651 -0.236003 -1.023704 -0.504538
2833 0.433669 -0.598056 -0.155680 -0.229972 -0.779697 -0.563339 -0.367999 -0.352537 -0.904519 0.466748
5154 0.403071 -0.529036 0.081273 0.179275 0.124358 -0.396310 -1.133316 -0.218431 -0.563013 0.153797
3623 0.256130 0.589600 -0.077897 1.115325 0.047907 -0.545605 -0.685043 -0.346854 -0.535373 -0.046020
696 0.378455 0.255822 -0.005722 0.255106 0.436285 -0.449705 -0.298170 -0.516345 -1.263346 -0.653501
1515 0.363734 0.274797 -0.309370 1.322528 0.269797 -0.726595 -0.470166 -0.245345 -0.528709 -0.262221
3435 -0.001589 -0.724097 -0.156834 -0.019879 1.010283 -1.013811 -0.610862 -0.420647 -0.327613 0.851700
1081 0.226960 -0.101598 0.175265 -0.307114 0.204255 -0.867881 -0.983853 -1.025169 -0.359935 0.493001
789 -0.454229 0.495889 -0.210345 -0.109689 -0.299938 -0.830287 -0.628315 -0.288102 -0.773373 -0.048068
2392 -0.443434 -0.473509 0.120857 -0.272026 0.697507 -0.703024 -0.772143 -0.800745 -0.558391 0.336765
731 -0.054386 -0.381750 0.558030 -0.097603 -0.368187 -0.355629 -0.624459 -0.903210 -1.025257 -0.568601
3295 0.202585 0.048656 -0.637866 0.298302 -0.123771 -0.706609 -0.430472 -0.371661 -0.997989 -0.544977
108 0.237265 -0.179238 0.102253 -0.244016 -0.055781 -0.496393 -0.623347 -0.740201 -0.712875 0.357424
4949 -0.334392 0.233100 -0.082907 1.226955 -0.103428 -0.740115 -0.717935 -0.453281 -0.323690 -0.305196
173 -0.342243 0.197058 0.339353 -0.016916 -0.617939 -0.536513 -0.403463 -1.085903 -0.931102 -0.387400
2533 -0.390979 0.225317 0.226435 0.961647 -0.294269 -0.790139 -0.428103 -0.484417 -0.328100 -0.157937
1159 -0.489158 -0.625926 0.074829 0.387648 0.196889 -0.195477 -1.489882 0.218174 -0.856025 -0.497105
4955 -0.680451 0.341168 0.548527 0.991857 0.196974 -0.681680 0.362046 0.531065 -1.140191 0.793824
3553 -0.669408 -0.077570 -0.128448 1.141635 0.120933 -0.654777 -1.058313 -0.105699 -0.253861 -0.134432
203 0.193803 0.436939 -0.449159 0.778444 0.458149 -0.690610 -0.223279 -0.423575 -1.021869 -0.568999
2008 0.224056 0.007362 -0.068976 1.065402 0.071256 -0.560013 -0.120748 -0.789790 -0.739393 -0.499176
643 -0.580426 0.345902 0.603600 0.995986 0.255983 -0.521316 0.329029 0.475869 -1.203035 0.703413
3355 0.378523 -0.100506 -0.125703 0.742825 0.008213 -0.301003 -0.082265 -0.972937 -1.210051 -0.721793
703 -0.705620 -0.505201 -0.405267 0.135143 -0.368694 -0.709410 -0.880229 0.049082 -0.713922 -0.217215
2842 0.419607 -1.218897 -0.053072 0.443614 -0.700516 -0.690138 0.353690 -0.070673 -1.014946 0.190021
4192 0.415266 -0.510201 0.240650 0.130026 0.304286 -0.209527 -1.036820 -0.351579 -0.925418 -0.365307
2169 -0.289223 0.904983 0.379167 0.909110 0.641069 -0.486568 0.538318 -0.033989 -1.338212 0.628321
72 0.623418 0.217084 -0.121438 0.606582 0.448683 -0.634232 -0.391554 -0.163229 -1.107916 -0.725032
2578 -0.466066 -0.587980 0.038297 -0.035683 0.656097 -0.974698 -0.550104 -0.803720 -0.443280 -0.033501
425 -0.348755 0.334836 0.020770 0.025311 -0.602574 -0.810816 -0.334746 -1.064077 -0.893827 -0.501970
1105 0.308344 -0.195579 -0.172430 -0.024016 -0.675583 -0.351595 -0.099322 -0.349607 -1.061793 0.282867
1563 0.364647 -0.046106 0.068216 0.234490 0.280855 -0.045141 -0.624766 -0.398951 -1.228013 -0.373347
1470 0.671065 0.016464 -0.039209 0.687923 0.363092 -0.363897 -0.095324 -0.474501 -1.399002 -0.826431
5010 -0.291018 -0.338658 -0.544217 -0.316021 0.447713 -0.931899 -0.764810 -0.322990 -0.496728 0.826643
869 0.462460 0.167828 -0.095609 0.936198 -0.158406 -0.778157 -0.415125 -0.557782 -0.547677 -0.374796
3138 0.429979 0.346691 -0.164077 0.608758 0.307742 -0.398754 -0.262591 -0.355268 -1.323618 -0.718193
2905 -0.824885 -0.232062 -0.730191 0.101262 0.004541 -1.161172 -0.583129 0.020987 -0.670900 -0.303816
3221 -0.942088 -0.420632 -0.669853 0.571944 0.286091 -0.780248 -0.769216 0.050404 -0.589263 -0.236729
1341 -0.264603 -0.362787 -0.533961 -0.097490 0.633914 -0.964829 -0.530882 -0.223093 -0.498153 0.640668
3165 0.439566 0.554728 -0.132681 0.589316 0.752026 -0.151530 0.030503 -0.826297 -1.521010 -0.280833
4156 0.645673 0.302275 -0.237700 0.578882 0.321408 -0.365332 -0.248812 -0.314204 -1.492899 -0.752935
4364 0.507218 -0.112587 -0.452990 0.733553 -0.380988 -0.579255 -0.608001 -0.352226 -0.361999 0.688094
761 0.249675 0.573754 -0.438762 0.601541 0.631424 -0.403719 0.404505 -0.792207 -1.474914 -0.212390
914 -0.138174 -0.405821 -0.374526 0.091489 -0.477114 -0.287012 -0.446925 -0.710742 -0.854627 0.249419
1692 -0.384046 -0.053190 -0.513311 -0.304250 -0.052581 -0.977297 -0.357083 -0.502848 -0.801012 -0.045149
4206 -0.340976 -0.515545 -0.445630 -0.212164 0.757994 -1.095713 -0.790158 -0.218639 -0.471589 0.396622
4325 -0.384082 0.104408 0.042479 0.190025 -0.311349 -0.893782 -0.272031 -1.023683 -0.631613 -0.363926
3586 -0.428689 -0.247863 -0.578867 -0.150078 0.007780 -0.787962 -0.368198 -0.434618 -0.656673 0.527582
4572 -0.635286 -0.565619 -0.081404 -0.098446 0.481111 -1.167514 -0.444329 -0.516470 -0.359213 0.164090
782 -0.036770 -0.081691 -0.242369 0.888815 -0.151551 -0.793785 -0.638581 -0.426105 -0.132123 0.485873
500 -0.176229 -0.352326 0.112446 -0.265683 0.560671 -0.826676 -0.813007 -0.771242 -0.478905 0.297456
848 0.866005 -0.076399 -0.147770 0.454317 0.458984 -0.584277 -0.318060 -0.513269 -1.224191 -0.779485
2633 -0.147654 -0.356720 -0.215897 -0.230178 0.626009 -0.723931 -0.690226 -0.691600 -0.521857 0.688876
1436 -0.466363 -0.333690 -0.762526 0.070855 -0.451452 -0.804843 -0.476064 -0.072880 -0.809421 -0.071453
3839 0.287423 0.296024 0.782202 -0.259799 -0.163180 -0.574829 -0.806344 -0.583158 -0.854911 -0.180474
3259 -0.427796 -0.241526 -0.258359 0.107962 0.251272 0.056081 -0.692234 -0.824826 -0.973487 0.276248
82 -0.862341 -0.252422 -0.758076 0.375135 0.169480 0.112229 -0.521898 -0.831568 -1.010465 0.568484
4904 0.177886 0.451646 -0.230162 1.231468 -0.106489 -0.656904 -0.541577 -0.561042 -0.476985 -0.134050
694 -0.137331 -1.014839 0.757993 -0.052538 0.344863 -0.337717 -0.626792 -0.901180 -0.848304 -0.334533
3999 -0.448880 0.640813 0.681100 0.949578 -0.018950 -0.773781 0.363877 0.444460 -1.175545 0.690580
224 0.531997 0.023051 0.006441 0.443996 0.247107 -0.393245 -0.541718 -0.427278 -1.208721 -0.820445
4649 -1.016930 -0.427846 -0.425045 0.193073 0.076801 -0.672081 -0.933378 0.138708 -0.741468 -0.245106
2908 -0.157858 0.035395 0.365370 -0.066380 -0.601051 -0.575377 -0.474843 -1.058926 -0.852363 -0.316507
1700 -0.700501 0.149488 -0.423896 1.232844 0.155841 0.175826 -0.468267 -0.569638 -0.841779 0.344419
1097 0.536530 0.161450 -0.545677 -0.063663 -0.360679 -0.319727 -0.978351 -0.472454 -1.009838 0.158672
73 -0.395242 0.300187 0.143594 0.282289 -0.295976 -0.616881 -0.103117 -0.831329 -1.023334 -0.630614
3639 -0.371880 -0.137879 -0.581147 -0.151841 0.301212 -0.859904 -0.634764 -0.340842 -0.607337 0.341373
2683 -0.136864 0.735257 0.073613 0.647928 -0.365679 -0.651064 -0.387876 -0.670421 -0.839111 -0.463531
4174 -0.810793 -0.210520 -0.719103 0.026789 -0.006011 -0.885652 -0.712937 0.096527 -0.750474 -0.091023
3013 0.083693 0.491964 0.263124 0.975199 0.013484 -0.678698 0.059948 0.028852 -1.023997 -0.552975
4237 -0.157329 -0.330582 -0.216150 -0.399503 0.129973 -0.641940 -0.679814 -0.681605 -0.656623 0.549304
2744 -0.434545 -0.029646 0.124059 -0.348426 0.484643 -0.612597 -1.024105 -0.484154 -0.573547 0.538208
4306 -0.576769 -0.152498 -0.674388 -0.065056 -0.158911 -0.997774 -0.487710 -0.073659 -0.745932 -0.031053
5063 -0.326835 -0.288467 -0.107704 0.233793 0.363090 0.044035 -0.687325 -0.662765 -1.012272 -0.065574
3184 -0.015777 -0.062415 -0.248762 0.976993 -0.340292 -0.818970 -0.334257 -0.577783 -0.193988 0.394004
908 0.037376 0.219513 -0.284569 1.138665 0.238299 -0.621775 -0.592017 -0.215258 -0.503619 -0.194912
4336 0.336676 0.273334 -0.447664 0.531938 -0.482477 -0.872359 -0.544890 -0.468779 -0.351044 0.578981
121 0.263157 -0.172056 -0.435674 0.486609 -0.663638 -0.716309 -0.393310 -0.574613 -0.740592 -0.307048
692 0.440920 0.058237 -0.275104 0.633537 0.319580 -0.423935 -0.228496 -0.444446 -1.170054 -0.620551
2941 -0.728283 0.107461 -0.177347 0.601868 -0.231352 -0.595086 -0.419920 -0.716103 -0.789070 -0.628288
4879 0.105160 0.453034 0.544097 0.622910 -0.129767 -0.877279 -0.095572 -0.493500 -0.706296 -0.473598
1551 -0.721898 -0.246595 -0.288924 0.402781 0.098720 0.309067 -0.571133 -0.885198 -0.972509 0.747016
472 -0.261504 -0.386216 -0.504456 -0.203992 0.249371 -0.736184 -0.581346 -0.463347 -0.703621 0.223989
3520 -0.870635 -0.523091 -0.508850 0.106309 -0.083679 -0.555560 -0.794732 -0.167802 -0.759939 -0.095828
2144 -0.294355 -0.317060 -0.621341 0.177010 -0.172332 -0.696119 -0.126513 -0.149636 -0.932655 -0.194848
4456 0.651731 -0.128354 -0.684161 0.011009 -0.368536 -0.217315 -0.685376 -0.243509 -1.141079 0.244637
1193 0.240265 0.222793 -0.550864 0.805233 0.326891 -0.706698 -0.047528 -0.487935 -1.098695 -0.685694
3113 0.251337 0.268085 -0.071780 1.085460 -0.355246 -0.848567 -0.292705 -0.669641 -0.261435 0.259088
993 -0.522918 0.527488 0.612381 1.019589 0.219147 -0.809868 0.308522 0.642989 -1.239017 0.282619
1070 0.017721 0.530777 0.143346 0.222246 -0.327537 -0.891292 -0.437195 -0.930520 -0.400942 0.282394
2403 -0.110375 0.752954 -0.353346 0.573831 -0.438755 -0.859570 -0.610540 -0.379928 -0.448810 0.354961
4579 0.038942 -0.666247 -0.057792 -0.249220 0.824085 -0.643938 -0.835515 -0.530824 -0.545691 0.735564
4773 0.284690 -0.145540 -0.149917 -0.106303 -0.360653 -0.241803 -0.661550 -0.656701 -0.938174 0.233677
3265 -0.447061 0.290409 0.485678 0.534430 -0.302583 -0.688063 -0.063685 0.390778 -0.739938 0.800046
55 -0.705448 -0.241221 -0.268671 0.823506 0.104136 -0.638077 -1.112240 -0.093474 -0.311888 -0.038789
3399 0.038265 -0.409405 0.120528 0.536927 0.665052 -0.990384 -0.801773 -0.526001 0.004016 0.705040
1319 0.430113 0.310793 -0.450312 0.728452 0.398795 -0.527081 -0.223693 -0.457196 -1.273786 -0.762844
5164 0.455991 0.330155 -0.272246 0.802033 0.190664 -0.721304 0.009371 -0.537971 -1.184838 -0.768590
3080 0.514985 -0.295700 -0.252283 0.764005 -0.002990 -0.442160 -0.109789 -0.690004 -1.101334 -0.724022
4718 -0.467223 -0.575865 0.146052 0.014719 -0.052740 -0.439469 -1.278066 0.011669 -0.833221 -0.441643
1674 -0.318100 -0.126561 -0.773032 -0.176582 -0.309492 -1.068122 -0.341350 -0.244132 -0.745802 0.151295
2307 0.525338 0.244379 -0.160558 0.433814 0.182452 -0.442483 -0.261697 -0.276690 -1.426682 -0.827868
3456 0.296519 0.366759 -0.276933 0.984522 0.195759 -0.541072 -0.071996 -0.626526 -0.903459 -0.356479
2427 -0.304914 0.630103 0.624171 0.837631 0.218213 -0.749898 0.352723 0.611493 -1.319566 0.472876
1405 0.262854 0.105383 -0.636072 0.840859 0.339902 -0.865640 0.070257 -0.429616 -1.003510 -0.647986
889 -0.037950 -0.478783 -0.357384 0.279024 -0.093285 0.129772 -0.608018 -0.734985 -1.036716 0.159902
603 0.131562 0.024962 -0.239351 0.895980 -0.545259 -0.854233 -0.647108 -0.394596 -0.445112 -0.384604
2830 -0.419933 -0.528462 0.120688 0.149556 0.337513 -0.282148 -1.367865 0.108042 -0.879840 -0.462850
5038 -0.102083 -0.460406 0.022037 0.401353 0.645949 -1.100730 -0.922671 -0.656090 0.042257 0.632622
32 -0.471453 -0.279102 -0.187776 0.164331 0.133979 0.007365 -0.950447 -0.435521 -0.989597 -0.091441
2252 -0.892147 0.339871 -0.745108 0.201908 0.136527 -0.067791 -0.618518 -0.746857 -1.028807 0.433044
2221 -0.009280 0.609095 -0.276064 0.966652 0.162430 -0.724525 -0.376340 -0.333542 -0.726435 -0.394585
1591 -0.144983 -0.153245 -0.704833 -0.261343 -0.148085 -0.874798 -0.501473 -0.192646 -0.828047 0.161449
2921 0.479387 0.348973 -0.382435 0.450457 0.166167 -0.247474 -0.353570 -0.352998 -1.370828 -0.470712
3127 -0.253274 0.015277 0.155700 0.190965 -0.631887 -0.758111 -0.279220 -1.005555 -0.675122 -0.259483
248 -0.662010 0.090169 0.056402 -0.168247 -0.029389 -0.553071 -0.222401 0.114078 -0.858463 0.785220
1334 0.128841 -0.109836 -0.115740 -0.118060 -0.572336 -0.307292 -0.744417 -0.431469 -1.113886 -0.224817
4892 -0.000352 0.191533 0.183308 -0.178346 -0.459105 -1.066127 -0.224881 -0.725577 -0.658950 -0.142179
3888 0.318829 0.541061 -0.220099 0.646838 0.865685 -0.262081 0.260395 -0.724783 -1.497509 -0.219045
2304 -0.582674 0.016727 -0.101387 0.117305 -0.165003 0.213546 -0.354854 -0.529362 -1.102239 0.841145
2502 0.572848 -0.067882 -0.278217 0.432612 -0.355335 -0.325748 -0.421232 -0.459089 -1.120260 -0.386282
2380 0.189920 -0.097820 -0.001729 0.791904 -0.058212 -0.268832 -0.089846 -0.803815 -1.101884 -0.674126
326 -0.546638 -0.125209 0.049819 -0.010166 0.886317 -1.248022 -0.556785 -0.687614 -0.321657 0.044706
2637 0.296284 0.864500 -0.161346 0.782983 0.555502 -0.676704 -0.447258 -0.342687 -1.043233 -0.544119
340 -0.211856 0.110528 -0.300534 -0.211530 -0.136674 -0.800152 -0.882104 -0.486137 -0.586077 0.226772
1594 -0.121094 -0.130305 -0.091968 -0.462504 -0.284753 -0.491954 -0.477125 -0.560374 -0.873103 0.597331
3116 -0.248601 -0.111424 -0.516415 0.039353 -0.000130 -0.459951 -0.416632 -0.407880 -1.047873 -0.255275
1047 0.265986 -0.355567 -0.155805 0.245360 0.008957 -0.399120 -0.401652 -0.795221 -1.087307 -0.640836
2074 0.061198 0.092328 -0.125488 0.973339 0.155510 -0.742908 -0.561701 -0.397577 -0.186447 0.403599
4740 -0.509477 -0.196379 -0.664303 0.048677 -0.180543 -0.175468 -0.283722 -0.700148 -1.125491 0.161246
823 0.341676 0.480233 -0.211900 0.828735 0.106660 -0.469467 -0.490878 -0.305080 -1.120992 -0.719169
1690 -0.406010 -0.413163 -0.542358 -0.176588 0.519639 -1.154381 -0.552473 -0.246270 -0.503138 0.333023
2284 0.401983 0.902173 0.719974 0.648024 0.010804 -1.044547 -0.335032 -0.425855 -0.726163 -0.518274
2414 -0.555792 -0.275139 0.230746 0.060236 0.863539 -1.199212 -0.437179 -0.656377 -0.255776 0.194496
4913 0.142622 0.746525 -0.138223 -0.215097 -0.593878 -0.584732 -0.708419 -0.169586 -0.978929 0.249879
686 0.288601 0.711133 0.269922 -0.191087 -0.133477 -0.181365 -0.581650 -0.209370 -1.397190 -0.142639
1729 0.004589 0.470662 -0.117209 -0.279412 -0.458188 -0.567384 -0.378151 -0.649943 -1.138871 -0.141926
4888 -0.492073 0.500409 0.725603 0.849558 -0.173896 -0.731661 -0.466905 -0.870975 -0.444826 -0.401150
2227 -0.767175 0.003128 -0.661622 -0.210334 0.090903 -1.177648 -0.848357 0.004986 -0.592507 0.135950
892 -0.657106 -0.487222 0.061266 0.478279 0.015979 -0.519962 -0.409177 -0.132180 -0.666948 -0.294856
205 0.191817 0.011251 -0.349404 0.227335 0.248837 -0.164622 -0.684230 -0.339372 -1.233174 -0.442664
2914 0.410882 -0.165733 -0.052688 -0.176356 -0.125626 -0.285863 -0.913038 -0.676485 -0.746479 0.583212
2566 0.035638 -0.054664 -0.422765 0.555053 -0.072000 -0.504129 -0.172540 -0.700128 -1.011913 -0.536092
1704 0.242902 -0.083022 -0.434292 0.134354 -0.078897 -1.381322 -0.239923 -0.392455 -0.463562 -0.199028
4143 -0.034302 -0.344703 -0.095061 -0.379686 0.733235 -0.578918 -0.787961 -0.679982 -0.634736 0.801814
3957 0.243721 0.592533 0.230020 0.789689 0.181330 -0.937093 -0.188649 -0.422644 -0.646092 -0.410939
4193 0.099969 -0.809825 0.121786 0.088748 0.040261 -0.046984 -1.154933 0.053720 -0.916723 0.077947
1036 -0.451088 -0.609166 0.289740 -0.067283 0.804281 -0.656226 -0.633059 -1.060669 -0.518228 0.264853
4084 0.382187 0.068318 -0.357608 0.828838 0.332390 -0.804914 0.181313 -0.436738 -1.021359 -0.624973
1354 -0.670764 -0.488092 -0.211036 0.219898 0.045899 0.412896 -0.778714 -0.571113 -1.224510 0.254448
1631 -0.240883 -0.269947 -0.152290 0.066218 -0.297094 0.149307 -0.491610 -0.954153 -1.209113 0.027688
933 -0.455019 -0.068376 -0.252382 0.185206 0.078532 0.258910 -0.549193 -0.835207 -1.204745 0.167382
4611 0.389052 0.122707 -0.413041 1.326547 0.116765 -0.717319 -0.168654 -0.557299 -0.731165 -0.527312
4776 0.370438 -1.137073 0.097139 1.039513 -0.249672 -0.437416 0.806342 -0.395068 -1.262092 -0.213742
3266 0.635545 0.215187 -0.422489 0.957913 0.419338 -0.802751 -0.046196 -0.400304 -1.022689 -0.644511
4436 -0.176809 -0.401916 -0.424062 0.150831 -0.865751 -0.824189 -0.350338 -0.486018 -0.639725 0.101290
4552 0.574907 -0.524978 -0.089721 0.032157 -0.335420 -0.438865 -1.031542 0.023728 -0.934108 -0.235149
938 -0.276291 -0.288354 0.375050 0.479725 0.722734 -1.131927 -0.775197 -0.595644 0.041303 0.560700
4826 0.059234 -0.011916 -0.389962 0.704530 -0.689580 -0.724591 -0.274610 -0.588841 -0.787403 -0.514705
3877 0.079443 -0.148954 -0.342619 1.040582 -0.324330 -0.398107 -0.932200 -0.550633 -0.195863 0.744198
3205 -0.156214 -0.015238 -0.184660 1.319655 0.048735 -0.647765 -0.534914 -0.472445 -0.395215 -0.279802
4296 0.301149 0.515760 -0.203476 0.953641 0.360937 -0.529018 0.019248 -0.598020 -1.027683 -0.354871
4941 -0.199530 -0.286525 0.075657 0.581660 0.947577 -0.857857 -0.954465 -0.444574 -0.092324 0.507922
675 -0.067254 0.503840 -0.341069 0.153908 -0.447013 -0.972938 -0.520393 -0.724955 -0.507357 0.190125
1419 0.308202 0.604475 -0.116816 1.010109 0.137576 -0.823294 -0.282989 -0.313710 -0.668966 -0.237888
4919 -0.659324 -0.404209 -0.155228 0.559892 0.163130 0.569019 -0.661563 -0.793485 -1.166396 0.442022
4112 0.204918 -0.188974 0.356443 0.199943 0.539761 -0.148641 -0.590566 -0.657699 -1.322886 -0.792100
2660 -0.082092 -0.093629 0.194362 0.056187 -0.400168 -0.480936 -0.436047 -1.019127 -1.094443 -0.717464
574 0.113593 -0.022942 -0.294117 0.536181 -0.014292 -0.775073 -0.688976 -0.458625 -0.284021 0.387519
3244 -0.343636 -0.708526 0.745914 -0.119507 0.876515 -1.031031 -0.865405 -0.860157 -0.297624 0.154903
2043 0.349830 0.377948 -0.414899 1.057679 -0.312677 -0.697223 -0.637759 -0.338644 -0.425155 0.169878
636 -0.139846 -0.557362 -0.096283 0.096509 -0.402343 -0.264575 -1.057644 0.005913 -0.989798 -0.371810
1905 -0.588669 0.476238 0.675518 1.010278 -0.077153 -0.499510 0.028485 0.858903 -1.322870 0.852599
2360 0.296602 0.095660 -0.865302 -0.085553 -0.377424 -0.838584 -0.521237 -0.269219 -0.781809 0.396022
2262 0.617050 0.264500 -0.286320 1.250573 0.343628 -0.882589 -0.246229 -0.233316 -0.530463 -0.200829
1011 0.208938 0.500653 -0.014939 0.251163 0.297587 -0.944432 -0.096746 -0.515332 -1.122578 -0.783903
3193 -0.669766 -0.252947 -0.287155 0.538429 0.035323 -0.763142 -1.177663 0.194208 -0.283747 0.296850
1314 0.324520 0.186654 -0.273197 0.838752 -0.426716 -0.724709 -0.315499 -0.441100 -0.720721 -0.416850
435 0.598047 -0.054107 -0.261920 0.429243 0.487735 -0.503973 -0.335663 -0.326152 -1.255714 -0.754505
4497 0.140000 0.565154 -0.510587 0.078859 -0.291911 -0.082773 -0.811377 -0.257886 -1.055178 0.522648
1543 0.220150 0.255570 -0.235974 0.019506 -0.600955 -0.603146 -0.359630 -0.621971 -1.060466 -0.300129
1415 -0.559649 -0.334947 -0.619349 0.147717 0.066547 -0.427659 -0.909955 0.134214 -0.866874 0.009207
4658 -0.577793 -0.121305 -0.211750 1.063810 -0.082267 -0.778698 -1.170386 0.080495 -0.243515 -0.152443
2870 -1.010210 -0.145742 -0.322154 0.401060 0.116134 0.210033 -0.382040 -0.769186 -1.057374 0.513545
4202 0.538534 -0.434034 0.142227 0.504785 0.443213 -0.434511 -0.436156 -0.341677 -1.192568 -0.989731
4570 -0.888528 -0.373954 -0.619747 0.167841 0.030700 -0.780050 -0.982109 0.090069 -0.716124 -0.205565
612 0.253771 0.401581 -0.417661 0.361339 0.710796 -0.409508 0.161437 -0.810893 -1.136076 0.097911
585 0.306497 -0.367612 -0.179738 0.337691 -0.497581 -0.394488 -0.662058 -0.409542 -1.049241 -0.656879
664 0.511170 0.099549 0.169732 0.348610 0.500415 -0.042996 -0.308206 -0.746381 -1.375998 -0.467260
387 -0.417516 -0.154481 -0.241053 0.055320 0.466574 -1.123748 -0.205577 0.028636 -0.439562 0.483074
3365 -0.760266 -0.152458 -0.509429 0.505086 0.073230 0.403968 -0.612718 -0.997536 -1.141341 0.467083
3001 0.174995 0.470127 -0.112176 0.813431 -0.250697 -0.867090 -0.769192 -0.518329 -0.148856 0.541152
3710 0.339302 -0.244565 -0.114262 -0.260335 -0.361334 -0.442860 -0.502151 -0.586748 -0.928629 0.248582
2384 -0.080943 -0.438658 -0.648652 -0.049828 -0.632965 -0.724712 -0.456188 -0.358303 -0.811669 0.163493
2345 0.202599 -0.605492 -0.354469 -0.097864 -0.678829 -0.284472 -0.632546 -0.433774 -0.899950 0.543483
2167 0.631690 0.447877 -0.240836 0.611159 0.481164 -0.398846 -0.213726 -0.334557 -1.523554 -0.688145
1875 -0.733493 -0.162814 -0.368670 0.759723 0.166207 -0.768119 -1.037427 -0.049303 -0.307810 0.007671
1728 -0.444872 0.265689 -0.286885 -0.083133 -0.411144 -1.032736 -0.207560 -0.500137 -0.770056 -0.175694
4564 0.177275 0.694122 -0.166961 0.938894 0.529694 -0.572659 -0.169286 -0.298403 -1.010445 -0.373319
382 0.436935 0.175600 -0.100726 0.707341 0.203145 -0.430269 0.018549 -0.445784 -1.259999 -0.640144
4687 0.180718 0.091687 -0.122947 1.059718 0.064731 -0.641503 -0.102813 -0.493278 -0.640105 -0.273791
1276 -0.312989 0.159469 -0.304729 1.031199 -0.042786 -0.272349 -0.608718 -0.847331 -0.417706 0.419018
2555 0.236674 -0.742587 -0.066096 -0.185476 0.107111 -0.277962 -1.124014 -0.080041 -0.936579 0.052595
1418 -0.794325 0.287028 0.925313 0.812742 0.372506 -1.047201 0.304168 0.519080 -1.010997 0.981446
1935 -0.322565 -0.676070 0.548302 0.036476 0.472555 -0.790189 -0.764724 -0.994488 -0.435395 -0.244887
3220 -0.284637 -0.188274 -0.207483 -0.092680 0.498709 -1.205437 -0.599186 -0.817423 -0.236836 0.397208
1363 -0.880599 -0.048404 -0.439203 1.060858 0.020536 0.166934 -0.702503 -0.549302 -0.796463 0.266357
2203 0.041851 -0.036060 0.061151 -0.320631 -0.420759 -0.434553 -0.739255 -0.306091 -0.899247 0.227287
3680 -0.127739 0.030659 -0.138969 1.166758 -0.176720 -0.702353 -0.862356 -0.252102 -0.111224 0.450988
252 -0.534414 -0.129787 -0.376836 0.281371 0.061483 0.201343 -0.549029 -1.002294 -1.009328 0.508176
1614 -0.019207 -0.436077 0.122252 -0.300749 0.188223 -0.536963 -0.890720 -0.534839 -0.643378 0.356333
1190 -0.358589 0.109238 0.160002 0.399056 -0.698539 -0.729299 -0.087256 -0.983238 -0.843808 -0.556119
1000 -0.758424 -0.365428 -0.387226 0.399861 0.080115 0.393526 -0.579321 -0.776774 -1.092639 0.645249
1603 0.203238 -0.449651 0.173828 0.176642 0.261073 -0.289663 -1.364367 -0.151533 -0.762147 -0.262150
3478 -0.154765 -0.051228 -0.593275 -0.017582 -0.108816 -0.832636 -0.161542 -0.247596 -0.889131 -0.081297
3739 0.113917 0.109344 -0.330804 1.365026 0.335173 -0.497491 -0.552989 -0.325383 -0.583157 -0.327004
4010 -0.015549 0.505322 -0.080309 0.077693 -0.552653 -1.127333 -0.269773 -0.585557 -0.479802 0.299757
4832 -0.961874 -0.338177 -0.531979 0.336051 0.269286 0.096969 -0.442824 -0.898914 -1.001032 0.498114
2635 0.234546 -0.438280 -0.273936 0.217045 -0.177696 -0.430994 -0.581745 -0.432198 -1.059498 -0.607673
1325 -0.512400 0.693193 0.646316 0.651576 0.034936 -0.864902 0.133399 0.374066 -0.955896 1.079979
5138 0.210194 0.073586 -0.163443 0.108115 -0.159188 -0.214320 -0.478431 -0.650834 -1.237802 -0.431589
2244 -0.039043 -0.597022 -0.461032 0.018051 -0.749617 -0.723155 -0.417491 -0.534805 -0.850587 -0.196675
1918 -0.581606 -0.647911 0.345635 -0.004499 0.742010 -1.042256 -0.738635 -1.157075 -0.274069 0.147021
2829 0.066403 0.406556 -0.130258 -0.197788 -0.581313 -0.730829 -0.287886 -0.682358 -1.064522 -0.228422
750 0.449955 0.395707 -0.309009 0.691809 0.411788 -0.702244 -0.276992 -0.249549 -1.257919 -0.906639
2231 0.626581 -0.637232 -0.066945 0.045866 -0.720555 -0.399030 -0.405167 -0.238494 -1.048809 0.048062
4311 -0.503410 0.336305 0.769111 1.014263 0.180085 -0.705895 0.305626 0.711807 -1.237977 0.665147
409 -0.387802 -0.136832 0.038079 0.500841 -0.075613 -0.256825 -0.577307 -0.743649 -0.933328 -0.606373
1882 -0.850042 -0.380801 -0.436945 0.835923 0.108240 0.384611 -0.370293 -0.953357 -0.995682 0.622005
1643 0.339350 0.379682 0.083231 0.671420 -0.126603 -0.648472 -0.980686 -0.582111 -0.232828 0.427485
1138 0.389373 0.123602 -0.365530 0.698887 0.108488 -0.791810 0.097767 -0.301908 -1.033864 -0.580498
2776 0.400693 -0.880167 -0.018416 0.076293 -0.909593 -0.573098 0.074676 -0.487848 -0.869404 0.539374
3764 0.016391 -0.494242 -0.565529 0.280409 -0.759352 -0.716752 -0.082852 -0.523192 -0.658572 0.395795
3922 0.363105 -0.017721 -0.079274 0.325622 -0.118974 -0.156796 -0.511117 -0.500853 -1.234172 -0.479254
3804 0.433867 -0.003706 0.063465 0.487301 0.533100 -0.283473 -0.380931 -0.253101 -1.356232 -0.789837
1310 -0.042629 -0.030876 -0.343720 1.045456 -0.242318 -0.321656 -0.803157 -0.439783 -0.353873 0.474039
1886 -0.092764 -0.731044 0.116763 0.014947 0.914643 -0.951922 -0.759172 -0.612320 -0.282614 0.569618
1625 -0.265883 -0.314892 -0.493936 -0.087810 -0.376775 -0.731461 -0.541440 -0.558906 -0.594715 0.520095
4526 -0.199296 -0.251293 -0.343026 0.025855 -0.128049 -0.873064 -0.299271 -0.314775 -0.870435 -0.499514
4883 0.619120 0.476342 -0.518700 1.122088 0.505903 -0.292045 -0.062115 -0.490373 -0.925321 0.279520
3210 -0.120709 -0.209311 -0.175885 -0.421518 0.642458 -0.943292 -1.001918 -0.728754 -0.429048 0.740435
3104 0.438699 -0.302864 0.100989 0.818320 0.052643 -0.365371 -0.150418 -0.820490 -1.000746 -0.721153
3574 0.182253 -1.113440 0.166292 0.530629 -0.440585 -0.546813 0.302802 -0.229503 -1.041302 -0.353979
3216 0.451236 -0.566381 0.078957 -0.056364 -0.987267 -0.456208 -0.537277 -0.360440 -0.925022 0.170172
4924 -0.326129 0.045235 0.134075 0.078981 -0.573921 -0.396009 -0.443913 -1.058592 -1.053213 -0.497373
3782 -0.090406 -0.022289 -0.018231 0.484182 0.520654 -0.912429 -0.577080 -0.181892 -0.158451 0.989849
3618 0.129724 0.399221 0.034060 1.122390 -0.012525 -0.768209 -0.528439 -0.217447 -0.332305 0.056555
2568 0.267996 0.612535 -0.336256 0.968318 0.839644 -0.064045 -0.036172 -0.727765 -1.225401 0.101304
1414 0.319316 0.784769 -0.171005 1.028474 0.488866 -0.473914 -0.187395 -0.496719 -1.151031 -0.458546
2506 -0.927359 -0.264184 -0.250035 0.322913 0.645381 -0.680685 -0.771681 -0.517884 -0.575928 -0.188542
4722 -0.050764 0.492326 -0.189915 0.890122 -0.402870 -0.815186 -0.773220 -0.537160 -0.227218 0.349559
1815 -0.098349 -0.047495 0.294734 -0.048902 -0.636370 -0.520072 -0.432935 -1.062354 -1.053192 -0.602394
2771 -0.793866 0.186159 -0.541607 0.619840 0.063380 0.379831 -0.635307 -1.006266 -1.143093 0.361364
1388 -0.579595 0.372062 0.808304 0.885864 0.054724 -0.620661 0.355989 0.441683 -1.188658 0.917558
4842 -0.482053 -0.132228 -0.288884 0.110584 -0.135208 0.120627 -0.567719 -0.833314 -1.041022 0.452532
2378 0.446125 -0.087701 -0.057042 -0.062610 -0.455929 -0.673549 -0.959260 -0.424263 -0.569757 0.265972
1720 0.043145 -0.873219 0.456998 -0.075619 0.686107 -0.562559 -0.691128 -0.659798 -0.652912 -0.049721
2590 -0.637466 0.125260 0.016067 0.157673 -0.502150 -0.705484 -0.156879 -1.008274 -0.870776 -0.445657
865 0.096639 -0.182197 -0.513966 1.178603 -0.220990 -0.266510 -0.794491 -0.522938 -0.307699 0.689666
130 0.032607 0.186985 -0.156588 0.999225 -0.011386 -0.494789 -0.250743 -0.356877 -0.727586 -0.259597
4275 0.184365 0.395010 -0.158987 -0.387876 -0.779093 -0.640519 -0.479225 -0.643804 -1.141874 -0.087082
1881 0.629112 0.556637 -0.236336 1.276813 0.431226 -0.365407 -0.342121 -0.640351 -0.726174 0.095740
4331 -0.344115 -0.626926 0.143408 -0.014679 0.758247 -1.057027 -0.652387 -1.065980 -0.282042 0.186886
3651 0.090882 0.037509 0.042414 0.010176 0.117666 -0.390826 -0.029241 -0.755014 -1.257631 -0.438994
3958 -0.065514 -0.309953 -0.396823 -0.237455 -0.186994 -0.775348 -0.412206 -0.359194 -0.698125 0.377461
2714 0.325997 -0.392916 -0.137153 0.140621 -0.548389 -0.393635 -0.469463 -0.372892 -0.786330 0.301038
4508 -0.274128 0.770669 -0.289179 0.554178 0.063462 -0.586868 -0.369116 -0.512738 -0.825109 -0.082021
2086 -0.394428 -0.252662 0.249876 -0.124061 0.103701 -0.105191 -0.965231 0.119568 -0.988385 0.159107
2312 -0.383634 -0.206552 -0.058701 0.174606 -0.196556 0.190027 -0.571017 -0.727371 -1.032925 0.321801
2855 0.459520 -0.188245 0.061215 0.305728 0.326782 -0.022970 -0.843515 -0.452766 -1.197869 -0.509102
2793 -0.626965 -0.472185 -0.768033 -0.029872 0.132511 -1.034136 -0.690653 0.074626 -0.600867 0.215941
3414 -0.120028 -0.244896 -0.019815 -0.589822 0.771982 -0.588485 -0.771204 -0.553994 -0.777178 0.666006
1289 -0.485570 0.100776 -0.643185 -0.234599 -0.193155 -0.982252 -0.342549 -0.457407 -0.761095 0.150699
1462 -0.422497 -1.050017 0.658603 -0.035813 0.800366 -0.980832 -0.708598 -0.972140 -0.329661 0.100727
3612 0.010354 -0.634553 0.559479 -0.404937 -0.016187 -0.468398 -0.651266 -0.600501 -0.943698 -0.237089
1218 0.688857 -0.020643 -0.231311 -0.109585 -0.237701 -0.242778 -1.198798 -0.323762 -0.987316 0.118901
2430 -0.087298 0.370873 -0.452882 0.600373 0.407016 -0.677512 -0.156523 -0.482909 -1.008039 -0.543052
1758 0.483981 0.389523 -0.287681 0.991954 0.179161 -0.949831 -0.407361 -0.204023 -0.685627 -0.569500
2596 -0.647694 0.507806 0.754644 0.888070 0.155469 -0.841059 0.311371 0.579325 -1.226310 0.872852
37 0.578673 0.329413 0.073347 0.313657 0.142903 -0.497251 -0.393875 -0.573039 -1.190946 -0.643347
559 -0.062006 0.459737 0.076432 1.111211 -0.490652 -0.795986 -0.479930 -0.377390 -0.305553 0.233042
4338 0.188092 -0.003805 -0.597064 0.154978 -0.420923 -0.918737 -0.086015 -0.470858 -0.847224 -0.183322
1347 0.503559 0.451473 -0.147843 1.090646 0.086421 -0.763171 -0.419542 -0.173223 -0.804507 -0.588328
3083 0.184821 -0.090232 -0.460212 0.487773 -0.664487 -0.749455 -0.495592 -0.417365 -0.702892 -0.313461
4343 -0.903721 -0.462456 -0.684892 0.904742 0.071585 0.290472 -0.490803 -0.837566 -0.944511 0.525455
3152 0.526243 -0.079027 -0.293365 0.143664 0.239106 0.118609 -0.438749 -0.617634 -1.307386 0.069838
4083 0.156075 0.244315 -0.043509 1.262004 -0.249794 -0.762766 -0.401769 -0.336496 -0.488728 -0.346191
4785 0.289194 0.296508 -0.285960 1.101350 0.106082 -0.447855 -0.219827 -0.718008 -0.712665 -0.119925
1428 -0.039399 -0.267104 0.348985 0.101534 -0.379011 -0.387238 -0.652001 -0.770236 -1.178883 -0.935890
2470 -0.466400 -0.563992 -0.628807 -0.213811 0.343000 -1.073415 -0.607635 -0.356773 -0.519203 0.341175
5162 -0.284501 -0.010112 -0.882977 -0.078755 -0.148979 -1.241780 -0.365293 -0.020759 -0.627529 0.247761
1849 -0.094011 -0.061075 -0.213125 0.704529 -0.523539 -0.524845 -0.786786 -0.620161 -0.299879 0.421165
3382 0.471959 0.238958 0.136604 0.523007 0.415298 -0.182537 -0.379062 -0.492042 -1.405363 -0.750125
337 0.150180 0.462223 -0.125657 1.130516 -0.032910 -0.895758 -0.158956 -0.231315 -0.669854 -0.473700
4494 -0.198266 -0.134874 -0.412335 1.042354 0.222058 -0.602317 -0.504289 -0.695277 -0.417335 -0.147923
4203 -0.054550 -0.657202 0.062223 -0.153714 -0.436274 -0.133580 -0.712833 -0.537081 -0.915842 0.335104
2034 -0.250636 0.291890 -0.194089 1.075389 -0.193571 -0.496108 -0.645493 -0.601749 -0.415226 0.065415
2397 0.513370 -0.060299 0.046296 0.691657 0.257342 -0.239046 -0.186131 -0.549847 -1.359220 -0.814496
4360 -0.205692 -0.249328 -0.043386 -0.491581 0.487356 -0.729073 -0.672000 -0.668118 -0.660234 0.543445
3876 -0.169780 -0.768906 0.336106 -0.460564 -0.279916 -0.129720 -0.782875 -0.716114 -0.957193 0.472298
4101 0.290447 0.156526 -0.596147 0.132537 -0.413580 -0.796895 -0.723173 -0.429462 -0.491694 0.610993
1389 -0.776125 -0.399370 -0.657443 0.266419 -0.027463 -0.808853 -1.001803 0.415112 -0.578490 0.171969
671 0.504779 0.208255 0.000996 0.863604 -0.686710 -0.814422 -0.421722 -0.532632 -0.192059 0.815370
3334 -0.432167 -0.287351 -0.371052 -0.036945 -0.071269 0.019131 -0.931029 -0.253946 -1.043467 0.282918
1211 -0.092265 -0.019241 -0.174200 0.105270 -0.187396 -0.089353 -0.804711 -0.667038 -1.002626 -0.087615
2311 -0.289702 -0.194335 0.090395 -0.338394 -0.077237 -0.737724 -0.757200 -0.430332 -0.685924 0.054898
3844 0.738093 -0.273029 -0.759528 0.091536 -0.714001 -0.467534 -0.496936 -0.410005 -0.947748 0.457093
4813 0.178457 -1.424343 0.115848 0.877791 -0.398335 -0.646498 0.640119 0.125243 -1.145095 0.416343
786 0.390134 -0.413462 -0.812329 -0.087594 -0.780542 -0.713050 -0.436667 -0.668957 -0.841366 0.339216
631 0.431385 0.532548 0.711831 -0.114853 -0.026470 -0.712761 -0.751945 -0.824165 -0.709588 -0.107963
1427 -0.805758 -0.209084 -0.444536 0.574732 0.124611 0.369567 -0.615854 -1.061405 -1.151501 0.132610
2847 0.260763 -0.194622 -0.088162 -0.050013 -0.615716 -0.365682 -0.669608 -0.390669 -1.057253 -0.215056
2930 0.288514 -0.441570 0.001722 -0.122629 0.189287 -0.389198 -1.063485 -0.059016 -0.696619 0.469713
253 0.132716 0.133555 -0.204384 0.946686 -0.463839 -0.776493 -0.308741 -0.521168 -0.337689 0.243110
4717 0.213781 0.121123 -0.220955 1.212384 0.083083 -0.776436 -0.226686 -0.583116 -0.570355 -0.454668
2143 -0.239889 -0.135813 -0.251272 0.167707 -0.006632 0.134424 -0.457331 -0.529223 -1.158284 0.220184
3240 -0.057014 0.256152 -0.172754 1.519697 0.200903 -0.555936 -0.435863 -0.214820 -0.526580 -0.219941
1930 0.489429 0.532467 -0.173667 0.620844 0.933183 -0.187360 0.220109 -0.667938 -1.520098 -0.092268
2808 0.626811 0.220832 -0.187020 0.585550 0.667339 -0.260006 -0.024576 -0.601412 -1.352984 -0.369579
1144 -0.452836 0.020325 -0.523461 0.084534 -0.397699 -0.676834 -0.139786 -0.874675 -0.789484 0.162879
333 -0.482848 -0.226674 -0.447884 -0.172778 0.473066 -1.116376 -0.597621 -0.286623 -0.500441 0.256008
2197 0.342494 0.200549 0.007474 0.232502 -0.095396 -0.282885 -0.378746 -0.657198 -1.297832 -0.617098
68 -0.048533 1.025534 -0.247722 -0.195453 -0.732104 -0.652282 -0.766847 -0.212965 -0.983782 0.313539
1867 -0.546967 -0.192788 -0.316302 -0.033798 -0.062365 0.231576 -0.566457 -0.886248 -1.182512 0.495267
432 0.311664 0.119358 -0.244746 1.136248 -0.099715 -0.812466 -0.744053 -0.303840 -0.172338 0.212824
3565 -0.578193 -0.159899 -0.284386 -0.220178 -0.472851 -0.829542 -0.674603 -0.388070 -0.811868 -0.262136
567 0.500696 0.046163 -0.060535 -0.058005 -0.161529 -0.233843 -0.270584 -0.136900 -1.325510 -0.103473
3584 -0.678675 -0.404401 -0.295535 0.513756 0.094350 0.468931 -0.538442 -0.746276 -1.105250 0.551986
3289 0.322431 -0.090024 0.006525 -0.300541 -0.641019 -0.444882 -0.675104 -0.607561 -1.080407 -0.125958
4145 0.387977 -0.395583 -0.451094 0.125323 -0.737289 -0.574670 -0.451411 -0.325677 -0.929162 -0.084254
5126 -0.256959 -0.811714 0.298140 -0.067543 0.768433 -0.837664 -0.741054 -0.674874 -0.409015 0.275970
2195 0.373415 0.206116 -0.270882 1.292777 0.297381 -0.869093 -0.360897 -0.195525 -0.540749 -0.416601
2394 -0.345817 0.586536 0.668766 1.052937 0.306703 -0.883485 0.545008 0.412645 -1.182190 0.528170
3662 -0.255703 -0.607995 0.181841 -0.064238 0.839233 -0.727347 -0.685501 -0.947670 -0.547019 -0.035963
5070 0.474085 0.477881 -0.573506 0.748414 0.694361 -0.387809 0.098060 -0.680487 -1.328708 -0.214084
4756 0.449791 0.402592 -0.293777 0.810972 0.546688 -0.344381 -0.248116 -0.288083 -1.511065 -0.834421
167 -0.448089 -0.382066 -0.002658 0.653097 -0.168454 -0.162871 -0.727554 -0.805436 -0.892242 -0.694418
846 0.113968 -0.432610 -0.495451 0.123193 -0.231143 -1.219649 0.118617 0.034063 -0.712197 -0.132726
255 0.380460 -0.321967 -0.084098 0.775918 0.000005 -0.286327 -0.167495 -0.666798 -1.087553 -0.662645
3732 -0.536811 -0.248356 -0.618536 -0.050513 0.501974 -1.077496 -0.558643 -0.213848 -0.541759 0.184127
2789 0.413157 0.759215 -0.327229 0.470779 0.246689 -0.567744 -0.158570 -0.403840 -1.377844 -0.549449
5039 -0.200711 -0.488797 -0.160691 0.558544 0.268420 -0.946157 -0.728517 -0.743117 -0.029368 0.474317
3541 0.392241 -0.394162 -0.070674 -0.138226 -1.065442 -0.753944 -0.551706 -0.386636 -0.753076 0.314213
421 -0.421518 -0.490147 0.082305 -0.307019 0.553330 -0.640356 -0.937455 -0.696292 -0.522162 0.524208
2124 0.298829 0.088138 0.253647 -0.348582 -0.556722 -0.638852 -0.408787 -0.730488 -1.096097 -0.342785
390 0.335323 0.427400 -0.154379 1.169655 -0.643467 -0.802049 -0.573015 -0.814309 -0.254634 0.265099
2517 -0.730839 0.506733 0.683862 0.920368 0.110328 -0.399802 0.282676 0.465978 -1.416835 0.810081
4972 0.655849 -0.168484 -0.009693 0.339201 -0.042166 -0.297338 -0.368056 -0.683814 -1.205980 -0.575901
3071 0.260407 0.575132 -0.061577 -0.006055 0.197010 -0.327441 -0.125990 -0.324975 -1.340194 -0.091610
2369 0.742979 0.444772 0.201355 0.484556 0.623698 -0.431596 -0.461136 -0.293491 -1.363506 -0.738584
175 0.585167 0.300324 -0.343623 1.228393 0.450903 -0.633844 -0.205322 -0.269815 -0.858580 -0.391172
1118 0.255805 0.047971 0.268681 0.459041 0.157279 -0.958406 -0.906685 -0.692164 0.025526 0.852903
1596 0.353262 0.730461 -0.217173 0.728495 0.754743 -0.377981 0.299121 -0.780146 -1.383839 -0.104176
5100 0.224346 -0.095845 -0.506677 0.866306 0.693062 -0.661907 -0.460828 -0.590776 -0.411199 0.128926
926 0.220597 0.077392 -0.187360 -0.093669 -0.632089 -0.291860 -0.589358 -0.540889 -1.219930 -0.235355
3948 -0.146951 -0.200637 -0.009457 -0.397700 0.622340 -0.716424 -0.649182 -0.542736 -0.674799 0.477086
1245 -0.107694 0.507315 0.236858 0.474416 -0.191695 -1.092999 -0.395218 -0.459609 -0.272706 0.145900
4620 -0.149237 0.170379 -0.182627 -0.138107 -0.405690 -1.026368 -0.420058 -0.331800 -0.497315 0.482558
2527 -0.474735 -0.276256 -0.679457 -0.089280 -0.531437 -1.131355 -0.260629 -0.229511 -0.713678 0.014823
4368 -0.959425 -0.382088 -0.424245 0.179512 0.104299 -0.834657 -0.934700 0.122700 -0.704702 -0.399065
3918 0.668470 -0.021043 0.046388 0.546659 0.462487 -0.437354 -0.512890 -0.452952 -1.285971 -0.952956
2599 0.063246 -0.713267 0.384075 0.003906 0.041872 -0.176499 -1.268233 -0.150695 -0.818067 -0.055422
112 -0.928440 -0.197339 -0.648173 0.465794 -0.055485 0.210720 -0.515409 -0.817080 -1.086732 0.469719
4906 0.656142 0.359422 -0.096132 0.502169 0.451169 -0.285943 -0.418391 -0.505594 -1.424690 -0.689208
2614 -0.647116 0.146105 -0.181543 0.843133 -0.169334 -0.130429 -0.441813 -1.113080 -0.739748 -0.023055
2576 0.445540 -0.236920 -0.089050 0.060182 -0.285182 -0.443817 -1.014555 -0.671706 -0.697223 -0.019483
1913 0.181357 -0.269840 -0.178946 -0.117998 -0.718255 -0.419752 -0.613825 -0.362956 -1.102719 -0.233473
3617 -0.024135 0.203421 0.060931 0.783070 0.008278 -1.097035 -0.570750 -0.486385 0.028572 0.713554
1073 0.282756 0.200705 -0.097689 1.147580 -0.289261 -0.738672 -0.325073 -0.594984 -0.544636 -0.391097
1783 -0.864535 -0.446113 -0.297986 0.190361 0.127145 -0.788324 -1.074580 0.049422 -0.622521 -0.334264
242 -0.307961 -0.865846 -0.081381 0.203282 -0.542091 -0.957012 0.211188 -0.250640 -0.765464 -0.244273
792 -0.387296 0.247630 0.020271 1.395215 -0.131130 -0.450475 -0.614002 -0.591372 -0.392718 -0.117589
1653 -0.477762 -0.343202 -0.788130 0.074820 -0.453046 -1.040079 -0.512845 0.056976 -0.733988 -0.173765
1257 -0.105569 0.407094 0.111223 0.727559 -0.377288 -0.547698 -0.223202 -0.858808 -0.599764 -0.019383
1335 -0.665172 -0.367729 -0.118279 0.036774 0.096032 -0.507293 -1.326879 -0.097513 -0.811183 -0.460256
2996 -0.370089 0.136764 -0.361499 0.088013 -0.710897 -0.813695 -0.136608 -0.906811 -0.832100 -0.164292
1288 0.310357 -0.087763 0.453860 -0.308482 -0.461869 -0.508023 -1.188863 -0.593788 -0.779185 -0.042687
4139 0.278025 0.161046 -0.393507 0.638419 0.346482 -0.710544 -0.127158 -0.478093 -1.119665 -0.771042
1767 0.674765 0.092381 -0.622243 0.445299 0.039431 -0.750754 -0.136132 -0.442690 -1.000606 -0.350556
2476 -0.353491 -0.076971 -0.043415 1.001206 0.041733 -0.716551 -0.827668 -0.246768 -0.095070 0.454925
2664 0.158462 -0.633597 -0.004984 -0.321961 0.792680 -0.778725 -0.541342 -0.718148 -0.520891 1.036567
1298 -0.714147 0.262693 0.077202 0.760474 -0.246833 -0.673060 -0.690008 -0.728056 -0.533056 -0.520777
356 0.186790 0.390136 -0.351004 0.703663 0.131223 -0.883565 0.008478 -0.092149 -1.145837 -0.818866
2839 -0.057147 0.242664 -0.167849 1.243019 0.014435 -0.760973 -0.624365 -0.139120 -0.360548 -0.142625
2515 -0.450618 -0.666809 -0.347746 -0.020000 0.953516 -1.215090 -0.656018 -0.175242 -0.342814 0.551220
1675 0.067741 -0.853656 -0.262551 -0.011013 0.901686 -1.037249 -0.720408 -0.651255 -0.308437 0.653106
4688 -0.416479 0.661804 -0.133442 0.369554 -0.135474 -0.757158 0.136276 -0.114426 -0.921483 0.215272
992 0.193156 0.874045 0.024271 0.993586 0.360934 -0.476353 -0.105197 -0.081208 -1.211717 -0.375966
2559 -0.786845 0.406598 0.626012 0.593266 0.047037 -0.800848 0.093085 0.687800 -1.138619 0.876369
2107 -0.263296 -0.306912 0.066201 0.388934 -0.015270 -0.338309 -0.645169 -0.711124 -0.963110 -0.794895
3296 -0.017018 -0.206042 -0.027199 -0.195999 0.141242 -0.457726 -0.710441 -0.350808 -0.793406 0.223129
2481 0.510679 0.088817 0.013987 0.256068 0.364337 -0.349696 -0.420925 -0.062271 -1.481171 -0.827688
2184 0.073225 0.198592 -0.217020 1.082099 -0.418093 -0.635613 -0.574420 -0.509527 -0.327220 0.174740
5012 -0.647417 0.012868 -0.231277 0.692404 -0.159703 -0.370797 -0.398667 -0.985163 -0.813267 -0.474739
2266 -0.698103 -0.073793 -0.277212 0.036068 0.147929 0.032790 -0.482394 -0.738490 -0.978377 0.650832
4188 0.411724 0.392970 -0.153305 0.355502 0.085265 -0.310053 -0.393282 -0.506738 -1.260118 -0.499868
4451 -0.131270 0.284039 0.094488 0.936338 -0.436905 -0.768883 -0.326221 -0.888370 -0.402082 -0.138272
1834 -0.178386 0.014365 -0.812921 -0.046827 -0.080077 -1.043648 -0.148228 -0.496218 -0.817771 -0.091254
903 -0.597814 -0.082480 -0.322530 1.010082 0.088448 0.108975 -0.543844 -0.522157 -0.762349 0.278021
777 0.259729 0.138356 -0.140414 1.268384 0.073207 -0.520646 -0.254603 -0.333213 -0.647077 -0.239728
2291 0.022029 -0.487110 -0.601260 -0.080760 -0.797527 -0.831592 -0.511113 -0.424065 -0.616915 0.569471
1502 0.331943 -0.074437 -0.216498 1.004161 -0.458579 -0.688623 -0.594191 -0.554086 -0.184715 0.523838
2276 -0.384783 -0.445796 0.108052 0.521412 -0.086354 -0.313061 -0.636121 -0.881250 -0.806668 -0.665596
997 0.649666 -0.021563 -0.145449 0.656633 0.226329 -0.223617 -0.181505 -0.483346 -1.546756 -0.829404
2783 0.065627 0.919375 -0.564606 -0.067923 -0.542124 -0.408041 -0.797264 -0.150707 -1.056451 0.480122
230 -0.048189 -0.702546 0.051042 -0.107703 0.406709 -0.545078 -0.979504 -0.138196 -0.793351 -0.291768
4848 0.248830 0.079928 -0.212723 -0.130955 -0.736327 -0.226658 -0.498834 -0.576627 -1.285544 -0.143879
5141 -0.479654 -0.213949 -0.083307 -0.031150 -0.058952 -0.054962 -1.071079 0.401686 -1.103978 0.131272
1133 0.225941 0.013635 -0.039639 -0.429087 -0.102475 -0.541860 -0.771380 -0.519282 -0.783943 0.442050
1917 0.412973 -0.356398 -0.461154 -0.066463 -0.594836 -0.324475 -0.499446 -0.586710 -1.105169 0.053698
2722 -0.569656 0.500233 0.852386 0.794704 0.031468 -0.805877 0.349086 0.534543 -1.252650 0.824144
260 -0.532686 0.619662 0.373727 0.897854 -0.153854 -0.435314 0.228657 0.258269 -1.182986 0.241852
2598 0.642399 -0.060281 0.405379 -0.121825 -0.253153 -0.376366 -0.956893 -0.591680 -0.703751 0.349486
1360 0.485799 -0.920908 -0.291083 0.048924 -0.939735 -0.475261 -0.510383 -0.419785 -0.858365 0.363611
1661 -0.068207 0.560522 -0.437724 -0.034478 -0.400833 -0.944097 -0.253584 -0.623477 -0.872795 -0.133082
239 0.207123 0.721849 0.794104 0.111481 -0.025155 -1.193741 -0.856828 -0.519542 -0.182980 0.323104
2782 -0.592129 -0.021326 -0.210832 0.184731 -0.336722 -1.104980 -0.226748 -0.552230 -0.595130 -0.371651
389 0.418815 -0.012999 -0.255345 0.415196 -0.058531 -0.606544 0.054501 -0.753888 -1.100046 -0.536790
3872 -0.501373 0.419743 -0.519434 -0.081885 -0.336833 -1.174698 -0.231835 -0.564830 -0.805978 -0.305191
1424 -0.542102 -0.199092 -0.432894 0.091723 0.335442 -0.399336 -0.629083 -0.610071 -0.591704 0.762623
266 0.072775 0.349132 -0.051517 1.208667 -0.065023 -0.834747 -0.319423 -0.350198 -0.500205 -0.324831
749 -0.026817 -0.386901 -0.408538 -0.137980 -0.824869 -0.921964 -0.119797 -0.260989 -0.764485 0.337967
2978 0.615819 0.512738 0.037942 0.116095 0.738226 -0.210100 -0.519185 -0.310215 -1.429004 -0.270664
5133 -0.607264 0.355933 0.764208 0.940707 0.019251 -0.716992 0.411214 0.602939 -1.271038 0.822629
3023 0.755632 -0.170299 -0.245600 0.051789 -0.409266 -0.113948 -1.071341 -0.330399 -0.993986 0.243906
610 -0.710953 0.139531 0.106505 1.252310 -0.045966 -0.501869 -0.645068 -0.528558 -0.406931 -0.256357
2076 -0.032896 0.250005 -0.076391 -0.294130 -0.244924 -0.490202 -0.622518 -0.641305 -1.020130 -0.099667
5055 -0.444910 0.151422 0.546305 0.418089 0.761779 -1.191777 -0.017979 0.310980 -0.469669 1.044681
3232 -0.052780 0.195107 -0.052632 0.522010 -0.209489 -0.686501 -0.846523 -0.373130 -0.203177 0.775750
3668 0.316385 -0.126035 -0.177236 0.922200 0.036881 -0.343651 -0.022304 -0.727276 -1.100921 -0.644948
2003 -0.350022 -0.237168 -0.772647 -0.277229 0.194028 -1.183482 -0.613202 -0.309832 -0.556099 0.316872
768 0.414657 -0.283112 -0.280708 0.480937 -0.039793 -0.331604 -0.219632 -0.518949 -1.231769 -0.680787
4330 0.551275 -0.278883 -0.008365 0.392862 -0.096267 -0.203357 -0.554570 -0.729488 -1.110578 -0.560739
2183 -0.240448 -0.925581 0.315482 -0.228347 1.063982 -0.742548 -0.920133 -0.746847 -0.514175 0.362384
3199 -0.668340 0.256574 0.022042 1.239440 -0.242582 -0.674146 -0.621414 -0.646434 -0.408664 -0.401808
1057 -0.155057 -0.342600 -0.339954 0.140621 -0.681292 -1.126295 -0.319689 -0.177429 -0.639683 -0.334039
5056 -0.635412 0.277983 0.829509 0.778763 0.429413 -0.887023 0.160399 0.517222 -0.963848 1.201872
3480 0.244941 0.562237 -0.049368 1.031746 -0.402092 -1.011711 -0.517388 -0.564435 -0.197195 0.257049
4430 -0.235505 -0.379305 -0.592288 -0.192644 -0.359836 -0.580943 -0.483475 -0.417486 -0.753635 0.630943
729 0.608437 0.175139 -0.363115 0.703660 0.452150 -0.392494 -0.210029 -0.520857 -1.167239 -0.487923
2791 0.069207 0.051902 -0.035002 0.064120 -0.419999 -0.738843 -0.678605 -0.142019 -0.574678 0.202307
4944 0.301058 -0.988324 -0.045962 0.221503 0.976862 -0.836917 -0.855166 -0.296040 -0.311450 0.762384
1260 0.143643 0.293351 -0.037030 1.112674 -0.420247 -0.913834 -0.407589 -0.645344 -0.194320 0.257674
100 0.012777 -0.945214 0.552514 0.907051 -0.205995 -0.582529 0.611905 0.197625 -0.947414 0.868184
4460 -0.076318 0.847127 0.034684 0.699486 -0.507106 -0.845505 -0.805742 -0.131566 -0.300256 0.787101
367 0.144718 0.371023 -0.218879 1.310880 0.341140 -0.596823 -0.730463 -0.274619 -0.626552 -0.531855
2674 -0.429823 -0.412505 -0.572050 0.185278 -0.329573 -1.040077 -0.346968 -0.339914 -0.677037 -0.428795
812 -1.006248 -0.239273 -0.597089 0.420044 0.139565 -0.654300 -0.995414 0.066539 -0.673943 -0.188701
1181 -0.720665 -0.267555 -0.719082 -0.021744 -0.079360 -1.238484 -0.569006 -0.002082 -0.413943 0.605613
4622 0.155494 0.405043 -0.008249 1.040314 -0.616483 -0.640239 -0.553877 -0.414735 -0.483325 -0.003509
188 -0.695159 -0.639883 0.177768 -0.073458 0.873763 -1.249013 -0.547235 -1.070458 -0.263758 0.278396
4483 0.074187 -1.387858 0.231052 0.759966 -0.626142 -0.704021 0.898080 -0.040330 -1.376246 0.672358
2424 0.581049 -0.188620 -0.106064 0.828876 0.084137 -0.390942 0.057355 -0.754883 -1.258280 -0.766609
4465 -0.415793 -0.330962 0.364034 -0.372600 0.738790 -0.757780 -0.695613 -1.102234 -0.558468 0.387930
3951 -0.089694 -1.065046 0.395287 -0.058435 1.097517 -0.920139 -0.707074 -0.674835 -0.405627 0.379209
2478 0.395844 -0.173264 0.032453 0.157156 -0.672597 -0.403167 -0.741829 -0.471539 -0.858700 -0.163318
4902 -0.623589 0.274650 0.796440 0.829031 0.452706 -0.913387 0.278308 0.594067 -1.100736 1.101488
2729 -0.005455 -0.341676 -0.013167 -0.132724 -0.371866 -0.118587 -0.675980 -0.683523 -0.956256 0.310759
4496 0.349748 0.660643 -0.532259 0.574431 0.368195 -0.710505 -0.223879 -0.178524 -1.139278 -0.423123
893 0.208159 0.039410 -0.246510 -0.257138 -0.225714 -0.266994 -0.808494 -0.664783 -0.865360 0.616054
4064 -0.114098 -0.052941 -0.199309 -0.259459 -0.122782 -0.221030 -0.845099 -0.880933 -0.812577 0.626434
1765 -0.097734 -0.610890 -0.009372 -0.317760 0.869671 -0.785187 -0.719855 -0.847227 -0.517625 0.683088
473 -0.989008 -0.300584 -0.626810 0.292306 0.210014 -0.610101 -0.942556 -0.136897 -0.759245 -0.270316
3768 -0.089560 -0.016670 0.133864 0.024362 -0.562601 -0.422246 -0.377609 -1.042997 -0.998773 -0.345701
2810 -0.114925 -0.209517 -0.413273 0.211403 -0.365353 -0.782735 -0.566784 -0.494448 -0.787818 -0.540949
4660 0.044714 -0.507000 -0.012100 0.378540 -0.083628 -0.309958 0.044924 -0.389094 -1.267548 -0.697409
2419 0.146970 -0.026522 -0.189918 -0.144281 0.197395 -0.787173 -0.826685 -0.704649 -0.553470 0.212739
1439 0.369738 -0.381237 0.092789 0.032676 -0.344266 -0.505301 -0.838846 -0.247374 -0.872468 -0.342167
4125 0.265222 -0.117557 -0.757226 -0.009487 -0.461214 -0.647742 -0.366562 -0.050237 -0.955550 0.256213
5149 -0.128649 -0.129137 -0.535183 -0.115952 -0.372751 -0.919256 -0.509530 -0.403201 -0.782683 -0.191417
3795 0.182568 0.143183 0.034256 0.672792 -0.784208 -0.895685 -0.407683 0.007208 -0.388154 0.299377
3783 0.557502 -0.642844 -0.229473 0.024921 -0.598826 -0.040591 -0.939564 -0.069362 -1.254718 -0.115590
4227 -0.343903 -0.106077 0.262566 0.148818 -0.446919 -0.354876 -0.685408 -0.873055 -0.884782 -0.443041
2136 0.783864 -0.493203 0.137018 0.106363 -0.199908 -0.320517 -0.899226 -0.295281 -1.104714 -0.524864
1373 0.328309 0.074790 0.229019 -0.126698 -0.299051 -0.645551 -0.884277 -0.508882 -0.573310 0.250314
4814 -0.764852 -0.195465 -0.283747 1.125779 -0.142552 0.308135 -0.346660 -0.969604 -0.788307 0.763520
496 0.487637 -0.360002 0.146784 0.103432 0.203583 -0.227749 -0.625599 -0.173843 -1.071703 -0.287191
4734 0.263667 -0.361191 -0.286887 -0.078995 -0.736341 -0.870705 -0.420003 -0.264960 -0.699274 0.187002
3532 0.803004 -0.444435 0.030743 0.284566 0.001059 -0.594640 -0.604249 -0.277773 -1.082995 -0.775293
1811 0.102522 0.559254 0.043739 1.111865 -0.329542 -0.733514 -0.535407 -0.329577 -0.546299 -0.305702
4699 0.287046 0.718970 -0.353022 0.658603 0.714012 -0.511100 -0.045704 -0.539462 -1.392552 -0.526771
1228 -0.061445 -0.462588 0.051864 0.094474 -0.443535 -0.501351 -0.045452 -0.919078 -0.988485 -0.351021
2341 0.189068 0.598655 -0.309928 1.305609 0.471836 -0.452201 -0.282899 -0.112318 -0.906116 -0.245527
756 0.805850 0.062018 -0.691418 -0.219756 -0.245721 -0.619086 -0.607589 -0.423284 -1.134380 -0.002534
1176 0.323113 0.693630 -0.017433 1.020969 0.409302 -0.483057 -0.141453 -0.375453 -1.086897 -0.426123
4413 -0.350981 0.815699 -0.426826 -0.107562 -0.309041 -1.029395 -0.382408 0.049418 -0.842661 0.222388
2277 0.550576 -0.458245 -0.043359 0.665106 -0.003141 -0.496521 -0.293182 -0.679451 -0.996410 -0.823810
2318 0.090237 0.114911 -0.066830 0.946305 -0.138773 -0.820225 -0.830425 -0.496723 -0.056488 0.524507
4379 0.542950 0.045769 -0.024790 0.551298 0.592295 -0.300817 -0.454624 -0.459677 -1.045478 -0.418395
2948 0.022382 0.259272 -0.126815 1.498803 -0.108804 -0.662782 -0.611266 -0.287332 -0.380455 -0.232972
1737 0.878444 -0.074840 -0.061242 0.275629 0.370030 -0.530329 -0.497798 -0.300681 -1.155742 -0.614897
1785 0.012452 -0.974360 0.032485 -0.023098 1.022371 -0.849816 -0.907651 -0.645172 -0.401329 0.428511
1546 0.382061 0.808766 -0.005898 0.798660 0.820590 -0.251244 0.286565 -0.463720 -1.493889 -0.008910
4016 0.932712 0.124930 -0.910730 0.262486 -0.091706 -0.226578 -0.610021 -0.324941 -1.223809 0.125562
1223 -0.962720 -0.237064 -0.251180 0.982183 0.187843 -0.193901 -1.159420 -0.174547 -0.542219 -0.055664
2994 -0.271209 -0.426110 0.040308 -0.279838 0.600349 -0.574699 -0.898024 -0.547671 -0.623641 0.384540
1233 -0.444582 0.864456 1.190739 0.696949 -0.137838 -0.918489 0.197224 0.263694 -1.120899 0.314487
4355 -0.581679 -0.514812 -0.227217 0.559164 0.383587 0.459445 -0.651573 -0.898167 -1.029480 0.502394
4021 0.530849 -0.265804 -0.097765 0.118838 -0.218856 -0.009422 -0.694517 -0.321845 -1.125806 0.055604
4168 0.276775 -0.807740 0.116308 -0.519676 -0.958315 -0.628148 -0.762003 -0.396129 -0.829818 0.712707
3470 0.000148 0.263515 0.061243 -0.201137 -0.029720 -0.630788 -0.789220 -0.434467 -0.587871 0.574113
2550 0.433001 -0.213506 -0.120049 0.884879 -0.227124 -0.560014 -0.044466 -0.928610 -1.036327 -0.822856
1787 0.129452 -0.173773 -0.524376 0.191806 -0.417151 0.079531 -0.587489 -0.675444 -1.068828 0.424178
1499 -0.591040 -0.466923 0.264492 -0.234643 0.827735 -0.903238 -0.690723 -0.985697 -0.404906 0.502750
2083 0.249753 0.025079 -0.271439 0.443165 0.134481 -0.766382 0.182219 -0.732700 -1.061772 -0.593975
4680 0.022966 0.251640 -0.116653 1.168993 0.055476 -0.521968 -0.675167 -0.184861 -0.331134 0.318561
1383 0.395758 0.733562 -0.259880 0.846978 0.799582 -0.280992 0.142931 -0.894813 -1.163838 0.152595
3937 -0.401578 -0.405338 -0.144448 -0.332918 0.590104 -0.146522 -0.976741 -0.742161 -0.857502 0.714281
1275 0.418228 0.309514 -0.305572 0.805792 0.361156 -0.491163 -0.055392 -0.438050 -1.407757 -0.831327
1847 0.125760 0.011625 -0.292245 0.766015 0.055601 -0.734721 0.055208 -0.956695 -0.940698 -0.688017
4862 0.602055 0.041514 -0.122612 0.609446 0.484658 -0.309224 -0.513192 -0.231143 -1.349163 -0.857198
4069 -0.012401 -0.163045 -0.458281 -0.015660 0.179923 -1.122579 -0.243647 -0.064822 -0.715181 -0.216389
1883 0.173836 -1.390852 -0.103698 0.515770 -0.729208 -0.668748 0.536808 -0.222996 -1.081882 0.493402
3174 0.389179 0.460527 -0.258327 0.161368 -0.147000 -0.317588 -0.391642 -0.367957 -1.315002 -0.332715
1365 0.380686 -1.486711 0.142577 1.013614 -0.322377 -0.634931 0.814320 -0.058606 -1.262892 0.420498
3707 -0.724520 -0.318938 -0.422015 0.453172 0.059923 0.435501 -0.500867 -0.925243 -1.177611 0.543411
1254 0.126046 0.651442 -0.237783 0.393647 0.583092 -0.687277 -0.048259 -0.474381 -1.251231 -0.594339
735 0.183778 0.242287 -0.153461 1.476945 -0.008999 -0.683981 -0.476614 -0.172678 -0.470709 -0.227820
4377 -0.343878 -0.251571 -0.658271 -0.067023 -0.486843 -0.847429 -0.300120 -0.293967 -0.767976 0.192668
4242 0.134920 -0.406339 0.115042 -0.022855 0.115543 -0.225966 -1.303667 0.113186 -1.044601 -0.395504
1283 -0.942715 -0.291185 -0.636102 0.136484 -0.264729 -0.850335 -0.793346 0.091679 -0.850319 -0.436074
148 0.300987 -0.071030 -0.424143 0.170565 -0.680198 -0.635557 -0.529987 -0.293055 -0.932525 -0.290025
721 -0.097627 -0.382050 -0.894784 -0.180798 -0.178712 -0.860810 -0.334920 -0.213481 -0.752673 0.523199
4103 -0.546189 0.600335 0.665268 0.664549 0.165367 -0.871453 0.303984 0.723711 -1.334112 0.680256
1001 -0.553048 -0.469617 0.332181 -0.112536 0.994434 -1.190683 -0.547433 -0.679988 -0.328220 0.302614
672 -0.078615 0.460871 0.149380 0.775798 -0.486229 -0.911857 -0.563033 -0.048233 -0.346150 0.124699
2778 0.004188 -1.624664 0.204124 0.979324 -0.470010 -0.546528 0.677291 0.093664 -1.325574 0.645635
1909 -0.365443 -0.427328 0.761708 1.023959 -0.008845 -0.766027 0.724516 0.458580 -1.104199 0.958945
2965 0.203253 0.252801 -0.137072 1.330668 -0.413949 -0.724308 -0.801867 -0.556175 -0.122166 0.384959
4891 -0.598522 -0.133384 -0.333746 0.090477 0.123603 0.440238 -0.663343 -0.830632 -1.344525 0.428288
4574 -0.960955 -0.369961 -0.405816 0.007155 0.148010 -0.887583 -1.022991 0.069629 -0.716266 -0.375279
1401 -0.772054 -0.021928 -0.541489 0.524406 -0.158590 -0.522249 -0.517852 -0.778234 -0.703384 -0.215519
3502 -0.743143 -0.182557 -0.623954 -0.069063 0.086503 -1.257431 -0.368928 0.058409 -0.674074 -0.122253
4794 0.478225 -0.518256 0.105492 0.039019 -0.294824 -0.465741 -1.133988 -0.148180 -0.741460 -0.140499
4790 -0.925395 -0.126907 -0.529128 0.274200 0.174028 0.170844 -0.517566 -0.738668 -1.001133 0.840442
1119 0.672263 0.121936 -0.097953 0.680114 0.652154 -0.264844 -0.331417 -0.318056 -1.420824 -0.736600
165 -0.516488 -0.358443 -0.172855 0.405038 0.250277 0.455582 -0.696849 -0.847796 -1.115227 0.399796
3016 -0.492421 -0.516205 -0.219888 -0.351273 0.655887 -1.230441 -0.615730 -0.437454 -0.542923 -0.006535
1524 0.459320 0.236078 -0.227226 0.591326 0.285153 -0.406381 -0.234478 -0.274324 -1.467023 -0.865155
3331 -0.679913 -0.011459 -0.700032 -0.214666 -0.048776 -0.734707 -0.577472 -0.082976 -0.751568 0.651700
1209 -0.111693 -0.635339 -0.136198 0.572223 0.886734 -1.024731 -0.823251 -0.597104 -0.000170 0.763713
3151 -0.733882 -0.073356 -0.427745 1.124933 0.038108 0.134226 -0.642425 -0.677708 -0.617514 0.828700
3150 0.190056 0.833935 0.851517 0.358573 0.067795 -1.001788 -0.263442 -0.381700 -0.829563 -0.519646
424 0.327584 0.408641 -0.057970 1.057189 -0.452453 -0.756740 -0.563982 -0.695791 -0.231939 0.396379
1294 0.414904 -1.568588 0.047968 0.564254 -0.425738 -0.584405 0.581942 -0.090496 -1.182968 0.586962
2175 0.059095 -0.382608 -1.000159 0.031242 -0.554699 -0.742988 -0.514571 -0.278974 -0.794890 0.328384
569 -0.338069 -0.287460 -0.414666 -0.203475 0.059282 -1.001682 -0.797185 -0.152806 -0.545746 0.143892
3446 -0.776330 -0.445615 -0.525511 -0.143319 0.485016 -1.035791 -0.530421 -0.196191 -0.586700 0.242327
711 -0.373370 0.703961 0.660439 0.842066 0.048485 -0.801668 0.399115 0.621273 -1.374012 0.666378
2865 0.564928 -0.025385 -0.460276 -0.102549 -0.487881 -0.145135 -0.626845 -0.396314 -1.258057 0.123957
4617 0.666665 0.591874 -0.156798 0.571022 0.873585 -0.118111 -0.049507 -0.746922 -1.520578 -0.131384
2367 -0.084544 0.055958 -0.126179 0.604766 0.067856 -0.831229 -0.725218 -0.537895 -0.106886 0.729672
251 0.224809 -0.867755 0.584170 0.207817 0.421050 -0.356243 -0.479752 -0.885534 -1.020074 -0.779426
3009 -0.348703 0.210684 0.444288 -0.228274 -0.645296 -0.679494 -0.493112 -1.087101 -0.903171 -0.357581
1839 0.252704 0.726346 -0.286437 0.603648 0.885076 -0.279044 0.128403 -0.685441 -1.519553 -0.233640
2192 -0.401714 -0.276884 -0.796644 -0.035454 -0.659662 -0.882840 -0.281657 -0.347561 -0.878025 -0.071042
4896 0.438208 -0.296936 -0.111742 -0.198325 -0.284308 -0.527236 -0.684333 -0.504530 -0.797560 0.240148
627 -0.333330 -0.303286 -0.776502 -0.111379 -0.321091 -0.706368 -0.461987 -0.325778 -0.781563 0.403700
1733 0.592387 -0.428074 -0.046770 0.059855 0.022357 -0.138636 -1.152212 -0.212363 -0.943428 0.056750
2111 -0.189255 0.189760 -0.510837 0.305744 -0.203438 -1.048365 -0.542693 -0.061412 -0.530613 -0.080705
4484 0.285288 0.546090 0.081889 -0.327524 -0.162584 -0.567303 -1.161637 -0.031098 -0.764088 0.486582
3811 0.262756 -0.290925 -0.306694 -0.043871 0.851936 -1.003398 -0.659431 -0.406117 -0.312265 1.144876
1545 0.344434 0.329107 -0.087737 0.673223 0.459671 -0.261097 -0.057888 -0.599415 -1.406958 -0.623850
2491 0.011099 -0.648183 -0.516503 0.184119 -0.535133 -0.450740 -0.354941 -0.545827 -0.759153 0.387602
429 0.238136 -1.759332 0.159408 0.930391 -0.514868 -0.663768 0.738002 -0.117218 -1.326687 0.687620
2338 0.092296 -0.398090 0.249091 -0.127810 -0.580979 -0.453961 -0.821125 -0.687589 -0.913077 -0.316632
90 0.709689 -0.333305 0.065176 0.625116 0.190394 -0.485998 -0.247951 -0.553561 -1.106069 -0.801421
970 0.533894 -0.130892 -0.069624 0.127797 -0.179895 -0.393462 -0.802944 -0.344095 -0.869011 -0.107079
1539 -0.418921 -0.825319 0.071718 0.248221 -0.123631 -0.207378 -1.348190 0.163816 -0.898371 -0.447416
548 -0.473472 -0.698372 0.463076 -0.223094 0.789756 -1.000358 -0.616876 -1.105587 -0.382537 0.203581
2444 -0.408448 0.349283 0.244026 0.280158 -0.350130 -0.574573 -0.215339 -1.043437 -0.999003 -0.643415
3339 -0.321589 0.455876 0.057109 -0.080565 0.084789 -0.731352 -0.389746 -0.379468 -0.848314 -0.125407
1708 -0.000360 -0.363718 -0.286090 0.702254 -0.084591 -0.897366 -0.828341 -0.091323 -0.069661 0.759228
4195 -0.511022 0.537876 0.809766 1.021037 0.099338 -0.793210 0.199502 0.510860 -1.099451 0.504102
1300 -0.283423 -0.929992 0.650746 -0.031883 0.883616 -1.016296 -0.699716 -1.096162 -0.353720 0.000063
1467 -0.686926 0.160580 -0.464188 1.019666 0.472926 0.432690 -0.184550 -0.890583 -1.104027 0.729364
1746 -0.474932 -0.361858 -0.684643 0.282922 -0.197407 -0.252740 -0.421071 -0.638427 -0.805046 0.424396
4491 -0.021455 0.060773 -0.112800 1.031140 -0.304791 -0.686640 -0.689412 -0.536674 -0.174797 0.317899
2716 0.245169 0.083976 -0.214128 0.909181 -0.484871 -0.777216 -0.663635 -0.479357 -0.255120 0.266701
3227 -0.501061 -0.631841 -0.296621 -0.310102 0.656447 -1.168340 -0.813674 -0.255805 -0.499562 0.258564
4557 0.262151 0.452973 -0.045203 1.300770 0.031499 -0.600412 -0.363750 -0.139671 -0.713057 -0.348634
1268 -0.252709 -0.288462 -0.583938 -0.202075 -0.145587 -1.036807 -0.147048 -0.952311 -0.631439 0.205734
4341 -0.315288 0.218818 -0.046241 1.030080 -0.202811 -0.753055 -1.037663 -0.101677 -0.092049 0.511564
1922 0.926582 -0.094614 -0.087077 0.592892 0.299330 -0.569248 -0.415870 -0.252002 -1.164748 -0.772017
110 0.158725 -1.833963 0.044640 0.652166 -0.500328 -0.627170 0.684542 -0.192909 -1.383101 0.474187
3713 -0.088437 0.677827 -0.109877 1.053709 0.280780 -0.606778 -0.406316 -0.510215 -0.765491 -0.412008
4235 -0.053733 -0.386984 -0.216154 0.043703 -0.268646 -0.154970 -0.609258 -0.723748 -0.915251 0.187646
2811 0.810500 -0.021790 -0.178121 0.697696 0.419978 -0.510818 -0.431357 -0.248772 -1.175834 -0.757747
4523 0.049253 -0.041449 0.109264 0.951595 -0.122216 -0.745927 -0.901998 -0.578573 0.034656 0.683268
2736 0.345749 0.234275 0.186039 0.739202 -0.056174 -0.888299 -0.652273 -0.577281 -0.091709 0.506821
3642 -0.070123 -0.349800 -0.091027 -0.545927 0.673782 -0.593239 -0.849086 -0.583352 -0.760994 0.573767
4725 -0.087170 0.659045 0.810859 0.705980 -0.218765 -0.998971 -0.685784 -0.675755 -0.325831 -0.361564
1592 0.073011 -0.881895 0.094621 0.061399 1.058101 -0.644451 -1.058654 -0.423978 -0.460867 0.332734
4133 0.318110 0.196722 -0.057821 -0.080227 -0.574800 -0.409852 -0.437702 -0.573568 -1.211046 -0.307735
1685 -0.386467 0.382362 -0.884559 -0.332214 0.008436 -1.071521 -0.497082 -0.225359 -0.797920 0.321615
2151 0.439241 -0.267948 -0.024133 0.331780 -0.542653 -0.385366 -0.903585 -0.721618 -0.822976 -0.369172
861 -0.640341 0.122533 -0.321128 0.395066 -0.349562 -0.744824 -0.232376 -0.846940 -0.827052 -0.529088
75 0.228160 0.321388 -0.368157 0.761689 0.444140 -0.379014 -0.263449 -0.348619 -1.338399 -0.785248
2749 -0.761492 -0.614399 -0.494113 -0.224656 0.552333 -1.241302 -0.502331 -0.205920 -0.535223 0.221080
2548 -0.491087 -0.454446 -0.120785 -0.080518 0.701309 -1.159444 -0.781345 -0.665144 -0.250557 0.402200
4929 0.273842 0.089426 -0.651307 0.572737 0.352963 -0.867696 -0.286952 -0.292423 -0.931774 -0.657030
3424 -1.132626 -0.198255 -0.711947 0.504895 0.179239 -0.812721 -0.750317 -0.207514 -0.696509 -0.466353
2627 -0.382747 0.605654 0.502113 0.908840 -0.189569 -0.891125 0.364191 0.709368 -1.227003 0.797618
4063 0.460517 0.438581 -0.374404 1.151122 0.154701 -0.890327 -0.200715 -0.523435 -0.504396 -0.069894
3120 0.056343 -0.408728 0.044475 -0.003191 0.206781 -0.593376 -0.580224 -0.239345 -0.915498 -0.504208
4921 -0.020894 -0.236751 -0.113639 -0.539376 0.489545 -0.519898 -0.875048 -0.747585 -0.743786 0.733029
3391 -0.323264 -0.189194 -0.607935 -0.393454 -0.179202 -0.772141 -0.624947 -0.036147 -0.874171 0.276679
272 -0.168577 -0.266412 0.150871 -0.237895 -0.124881 -0.574462 -0.601900 -0.931048 -0.895809 -0.371824
2712 0.442017 0.619333 -0.159003 0.411270 0.266469 -0.345622 -0.349512 -0.337189 -1.570699 -0.739881
3171 0.213805 0.576211 -0.156506 0.925753 -0.481920 -0.420111 -0.562565 -0.418850 -0.475785 0.655855
4370 0.298982 0.604069 0.034211 -0.099343 -0.411452 -0.266749 -1.121747 -0.002326 -1.045927 0.113442
4503 -0.194499 0.456339 -0.192873 -0.443854 0.074867 -0.624225 -0.788746 -0.635567 -0.771981 0.492100
1048 0.310299 0.363195 -0.051183 0.789905 -0.414893 -0.940407 -0.611237 -0.759323 -0.068858 0.693523
1030 -0.686968 -0.184862 -0.373533 0.518136 0.066105 0.585397 -0.619013 -0.899553 -1.220760 0.571597
1329 0.249078 -0.454179 -0.067120 -0.136067 -0.741150 -0.256587 -0.352991 -0.354089 -1.185565 0.011730
3128 -0.082954 0.150775 -0.456121 0.134143 -0.258216 -0.874772 -0.608336 -0.112660 -0.638010 0.010728
3445 -0.513613 0.570826 0.740414 0.895941 0.013407 -0.849789 0.418919 0.478873 -1.203214 0.772909
2821 0.217983 -0.438329 -0.196335 0.063174 -0.389963 -0.401833 -0.772033 -0.496773 -0.824252 -0.064146
1087 -1.111174 -0.171787 -0.347651 0.600026 0.090294 -0.333430 -0.572442 -0.686195 -0.793950 -0.305733
3777 0.350609 0.375623 -0.226034 0.867237 -0.492994 -0.797955 -0.413359 -0.621538 -0.285615 0.598971
2353 0.026367 -0.145697 -0.616082 0.129858 0.017229 -0.722493 -0.032553 -0.584510 -0.959668 -0.211065
3964 0.542326 -0.673992 -0.106356 0.731048 0.246499 -0.315259 -0.301833 -0.677604 -1.172543 -0.913068
551 -0.575051 -0.268619 -0.162750 -0.150908 0.295683 -0.974349 -0.504423 -0.349344 -0.395337 0.675610
5098 0.262953 0.586927 -0.045980 0.190920 0.309329 -0.391306 -0.220603 -0.434498 -1.361722 -0.424867
1167 -1.044678 -0.293231 -0.454669 0.655671 0.117584 0.209400 -0.395191 -0.916891 -0.992017 0.514109
38 -0.506639 -0.114502 0.218331 0.554704 0.650845 -0.727920 -0.558793 -0.971248 -0.415087 -0.341579
3412 -0.013947 0.005041 -0.846612 0.221699 -0.057175 -1.089394 0.044531 -0.442270 -0.839581 -0.251849
200 -0.515139 -0.096573 -0.472902 0.269775 0.209515 -0.313428 -0.670585 -0.027848 -1.032177 -0.300910
3641 -0.149820 -0.065309 -0.193189 -0.046057 -0.098565 -0.076486 -0.902326 -0.587865 -0.821810 0.632561
1862 0.624922 -0.479073 -0.117341 0.052566 -0.686785 -0.265754 -0.898817 0.004825 -1.129573 -0.154879
1932 -0.803624 -0.160105 -0.240388 0.995859 0.060809 -0.655446 -1.267989 0.078269 -0.301687 -0.113355
456 0.383663 -0.785437 0.250884 -0.059648 -0.256337 -0.087032 -1.332079 -0.002562 -0.912194 0.176717
1115 0.173526 0.023407 -0.168407 1.001263 -0.416995 -0.720318 -0.592202 -0.344844 -0.257574 0.291936
3 0.588250 0.156767 -0.510782 0.987336 0.409596 -0.802852 -0.030289 -0.293810 -1.016785 -0.611240
4645 -0.289330 -0.333594 0.668486 1.176473 -0.292101 -0.661448 0.937073 0.498559 -1.410639 0.716439
3772 -0.552043 -0.495456 -0.564325 0.103694 0.254775 -1.052382 -0.720738 0.000234 -0.463635 0.073576
3145 -1.151337 0.177208 0.418489 0.791880 0.093964 -0.219779 0.061345 0.169624 -1.059230 0.683235
2746 -0.392401 0.133809 -0.090168 1.182911 -0.147844 -0.759547 -0.936867 -0.117733 -0.137729 0.214898
4261 -0.555656 0.584002 0.648094 0.923088 0.051941 -0.749046 0.398887 0.557655 -1.331047 0.786286
3498 0.526509 -0.395785 -0.361395 -0.003838 -0.530265 -0.550457 -0.817363 -0.215314 -0.916571 -0.145065
357 0.156811 -0.157139 -0.066221 -0.300485 -0.584091 -0.585384 -0.542575 -0.534644 -0.870955 0.184510
2302 0.019112 -0.422453 -0.841585 -0.116827 -0.494906 -0.801378 -0.259480 -0.282396 -0.985569 -0.009591
3231 0.162878 -0.080385 -0.334704 -0.227135 -0.433570 -0.522701 -0.754159 -0.439000 -0.988918 -0.121530
4213 -0.601000 -0.365080 0.324125 -0.521566 0.512382 -0.851513 -0.878789 -0.946941 -0.501708 0.479860
4230 0.032491 0.099651 -0.301438 0.805034 -0.300193 -0.684096 -0.604226 -0.689811 -0.251179 0.478247
